{"learner":{"attributes":{"scikit_learn":"{\"_estimator_type\": \"regressor\"}"},"feature_names":["Store Category","Store Size","Latitude","Longitude","Population Density","Average Income","Competitor Stores"],"feature_types":["int","int","float","float","float","float","float"],"gradient_booster":{"model":{"gbtree_model_param":{"num_parallel_tree":"1","num_trees":"100"},"iteration_indptr":[0,1,2,3,4,5,6,7,8,9,10,11,12,13,14,15,16,17,18,19,20,21,22,23,24,25,26,27,28,29,30,31,32,33,34,35,36,37,38,39,40,41,42,43,44,45,46,47,48,49,50,51,52,53,54,55,56,57,58,59,60,61,62,63,64,65,66,67,68,69,70,71,72,73,74,75,76,77,78,79,80,81,82,83,84,85,86,87,88,89,90,91,92,93,94,95,96,97,98,99,100],"tree_info":[0,0,0,0,0,0,0,0,0,0,0,0,0,0,0,0,0,0,0,0,0,0,0,0,0,0,0,0,0,0,0,0,0,0,0,0,0,0,0,0,0,0,0,0,0,0,0,0,0,0,0,0,0,0,0,0,0,0,0,0,0,0,0,0,0,0,0,0,0,0,0,0,0,0,0,0,0,0,0,0,0,0,0,0,0,0,0,0,0,0,0,0,0,0,0,0,0,0,0,0],"trees":[{"base_weights":[-0E0,6.700617E1,-7.527739E0,3.3919445E1,1.05435814E2,2.0277979E1,-1.1275796E1,9.172619E0,5.335E1,3.6508057E1,1.8427345E1,-7.702415E0,4.84375E1,-2.1809895E0,-1.2414823E1,-4.646875E0,1.9924479E1,1.8379688E1,2.8871094E1,-1.0609375E1,1.9829545E0,6.4719826E1,1.3729167E1,-1.0743389E1,1.9125E1,-1.0459292E1,-3.807838E0,-6.330357E0,-5.390625E-1,6.795938E0,4.1875E0,2.1421876E0,9.286608E0,-3.4338868E0,1.8541666E0,7.526786E0,-6.175E0,4.4441177E1,2.5877886E1,-5.0390625E0,1.8841146E1,-3.7052345E0,-4.9711537E0,3.864423E1,-3.3583336E0,-3.7498386E0,-3.680921E0,-2.0296876E0,-5.578125E-1,7.5625E-1,-1.4578125E0,1.6921875E0,1.921875E-1,-1.9078126E0,2.7421875E0,2.7632813E0,1.1882813E0,-2.111719E0,-4.078125E-1,1.4639423E1,7.2675004E0,-2.04375E0,4.21875E-2,6.2559376E0,1.75625E0,2.9562502E0,-2.5687501E0,1.4686607E1,6.8437505E0,4.420313E0,-3.3930805E0],"categories":[],"categories_nodes":[],"categories_segments":[],"categories_sizes":[],"default_left":[0,0,0,0,0,0,0,0,0,0,0,0,0,0,0,0,0,0,0,0,0,0,0,0,0,0,0,0,0,0,0,0,0,0,0,0,0,0,0,0,0,0,0,0,0,0,0,0,0,0,0,0,0,0,0,0,0,0,0,0,0,0,0,0,0,0,0,0,0,0,0],"id":0,"left_children":[1,3,5,7,9,11,13,15,17,-1,-1,19,21,23,25,27,29,-1,31,33,35,37,39,41,43,45,-1,47,49,-1,51,-1,-1,-1,53,55,57,59,-1,61,63,-1,65,67,-1,-1,69,-1,-1,-1,-1,-1,-1,-1,-1,-1,-1,-1,-1,-1,-1,-1,-1,-1,-1,-1,-1,-1,-1,-1,-1],"loss_changes":[4.045328E5,9.941606E4,7.53694E4,2.1148645E4,1.8999375E4,6.8133734E4,6.5613984E3,3.2128772E3,3.0753438E3,0E0,0E0,1.2598572E3,2.341214E4,1.3340456E4,1.7435938E2,6.574182E1,4.2042773E2,0E0,1.412959E2,3.758745E2,5.4396747E2,8.833664E3,1.5340833E3,4.210708E2,1.2860656E4,1.0049961E3,0E0,1.0426941E0,6.51285E1,0E0,1.1848633E1,0E0,0E0,0E0,2.3767155E2,5.5540466E0,1.1236282E1,3.1522266E2,0E0,3.7701416E1,1.9147705E2,0E0,7.765335E2,1.00536523E3,0E0,0E0,2.8360867E3,0E0,0E0,0E0,0E0,0E0,0E0,0E0,0E0,0E0,0E0,0E0,0E0,0E0,0E0,0E0,0E0,0E0,0E0,0E0,0E0,0E0,0E0,0E0,0E0],"parents":[2147483647,0,0,1,1,2,2,3,3,4,4,5,5,6,6,7,7,8,8,11,11,12,12,13,13,14,14,15,15,16,16,18,18,19,19,20,20,21,21,22,22,23,23,24,24,25,25,27,27,28,28,30,30,34,34,35,35,36,36,37,37,39,39,40,40,42,42,43,43,46,46],"right_children":[2,4,6,8,10,12,14,16,18,-1,-1,20,22,24,26,28,30,-1,32,34,36,38,40,42,44,46,-1,48,50,-1,52,-1,-1,-1,54,56,58,60,-1,62,64,-1,66,68,-1,-1,70,-1,-1,-1,-1,-1,-1,-1,-1,-1,-1,-1,-1,-1,-1,-1,-1,-1,-1,-1,-1,-1,-1,-1,-1],"split_conditions":[-1.2181282E0,3.0689597E-1,-8.714782E-1,-8.6642754E-1,2E0,3.831422E-2,-5.2482814E-1,-1.2400316E0,2E0,3.6508057E1,1.8427345E1,-2.4920599E-1,2E0,9.077616E-1,-1.7817812E-1,1.715838E-2,7.9116905E1,1.8379688E1,-5.031535E-1,2.1212202E1,2E0,6.805001E-1,4.6529034E-1,3.4219038E-1,2E0,9.516644E-1,-3.807838E0,-1.2589701E0,2E0,6.795938E0,3E0,2.1421876E0,9.286608E0,-3.4338868E0,2E0,2.1148642E1,5E0,7.909789E1,2.5877886E1,5E0,2.1198133E1,-3.7052345E0,1E0,1E0,-3.3583336E0,-3.7498386E0,1E0,-2.0296876E0,-5.578125E-1,7.5625E-1,-1.4578125E0,1.6921875E0,1.921875E-1,-1.9078126E0,2.7421875E0,2.7632813E0,1.1882813E0,-2.111719E0,-4.078125E-1,1.4639423E1,7.2675004E0,-2.04375E0,4.21875E-2,6.2559376E0,1.75625E0,2.9562502E0,-2.5687501E0,1.4686607E1,6.8437505E0,4.420313E0,-3.3930805E0],"split_indices":[6,4,6,4,1,4,6,4,1,0,0,4,1,4,6,5,3,0,4,2,1,4,4,4,1,4,0,4,1,0,0,0,0,0,0,2,0,3,0,0,2,0,1,1,0,0,1,0,0,0,0,0,0,0,0,0,0,0,0,0,0,0,0,0,0,0,0,0,0,0,0],"split_type":[0,0,0,0,0,0,0,0,0,0,0,0,0,0,0,0,0,0,0,0,0,0,0,0,0,0,0,0,0,0,0,0,0,0,0,0,0,0,0,0,0,0,0,0,0,0,0,0,0,0,0,0,0,0,0,0,0,0,0,0,0,0,0,0,0,0,0,0,0,0,0],"sum_hessian":[8E2,8E1,7.2E2,4.4E1,3.6E1,8.5E1,6.35E2,2E1,2.4E1,2.5E1,1.1E1,4.3E1,4.2E1,7.1E1,5.64E2,9E0,1.1E1,1.7E1,7E0,3.3E1,1E1,2.8E1,1.4E1,5.1E1,2E1,7.5E1,4.89E2,6E0,3E0,9E0,2E0,1E0,6E0,3.1E1,2E0,6E0,4E0,1.6E1,1.2E1,3E0,1.1E1,3.9E1,1.2E1,1.2E1,8E0,5.7E1,1.8E1,5E0,1E0,2E0,1E0,1E0,1E0,1E0,1E0,3E0,3E0,3E0,1E0,1.2E1,4E0,2E0,1E0,9E0,2E0,2E0,1E1,6E0,6E0,5E0,1.3E1],"tree_param":{"num_deleted":"0","num_feature":"7","num_nodes":"71","size_leaf_vector":"1"}},{"base_weights":[1.8862303E-1,4.8017097E1,-5.1848793E0,1.62567E1,6.842681E1,1.4806539E1,-7.879969E0,-2.3028977E0,2.4426218E1,5.6012814E1,2.9548609E1,-5.418224E0,3.5157307E1,-1.320383E0,-8.701934E0,-4.149132E0,4.003437E0,1.1758866E1,2.9233255E1,1.9422632E1,1.11142235E1,-8.329192E0,-3.049689E-1,4.695163E1,1.0011125E1,-6.138847E0,1.9080315E1,-2.658242E0,-6.8480773E0,-1.4632812E0,-5.248177E0,2.2874995E-1,1.5727968E0,4.0421405E0,4.409375E0,3.231952E1,3.568376E0,-3.4636476E0,-2.6323538E0,6.23189E0,-6.807943E0,3.5898808E1,2.1443384E1,-4.0277348E0,1.3856484E1,-7.584175E0,4.02314E0,3.0356607E1,-2.1865E0,-1.6909915E0,-2.599016E0,6.7875E-1,-1.0378125E0,-1.6996875E0,-4.741406E-1,1.8208596E0,1.633594E-1,1.0066711E1,2.6227968E0,7.072705E-1,-1.8569728E0,2.1139455E0,-4.2729523E-2,-6.917969E-1,-2.3294365E0,6.922821E0,1.2103304E1,-1.6350001E0,3.5859346E-2,2.0760562E0,4.9378834E0,-2.6214533E0,-1.035E0,5.222009E0,-2.2465E0,1.115625E0,9.870953E0,4.693711E0,-2.3524554E0],"categories":[],"categories_nodes":[],"categories_segments":[],"categories_sizes":[],"default_left":[0,0,0,0,0,0,0,0,0,0,0,0,0,0,0,0,0,0,0,0,0,0,0,0,0,0,0,0,0,0,0,0,0,0,0,0,0,0,0,0,0,0,0,0,0,0,0,0,0,0,0,0,0,0,0,0,0,0,0,0,0,0,0,0,0,0,0,0,0,0,0,0,0,0,0,0,0,0,0],"id":1,"left_children":[1,3,5,7,9,11,13,15,17,19,-1,21,23,25,27,29,31,33,35,-1,-1,37,39,41,43,45,47,-1,49,51,53,-1,-1,-1,55,57,-1,59,-1,61,63,65,-1,67,69,71,73,75,-1,77,-1,-1,-1,-1,-1,-1,-1,-1,-1,-1,-1,-1,-1,-1,-1,-1,-1,-1,-1,-1,-1,-1,-1,-1,-1,-1,-1,-1,-1],"loss_changes":[2.0611111E5,5.139347E4,3.8963188E4,5.0598086E3,1.2773281E4,3.5587188E4,3.417668E3,1.4468346E2,1.0567773E3,3.7269844E3,0E0,6.523789E2,1.2282996E4,7.1947334E3,1.0572656E2,1.8887283E1,8.051167E0,4.1420044E1,4.7175977E2,0E0,0E0,3.0276245E1,7.650798E2,5.295496E3,8.6557715E2,8.970691E2,4.3840176E3,0E0,4.440735E2,3.7574867E1,2.321167E-1,0E0,0E0,0E0,1.5943676E1,8.552246E1,0E0,7.807375E1,0E0,4.7736023E1,2.0863525E1,3.230996E2,0E0,2.4245499E1,1.0276904E2,2.179375E2,1.3628627E3,5.559922E2,0E0,1.615503E3,0E0,0E0,0E0,0E0,0E0,0E0,0E0,0E0,0E0,0E0,0E0,0E0,0E0,0E0,0E0,0E0,0E0,0E0,0E0,0E0,0E0,0E0,0E0,0E0,0E0,0E0,0E0,0E0,0E0],"parents":[2147483647,0,0,1,1,2,2,3,3,4,4,5,5,6,6,7,7,8,8,9,9,11,11,12,12,13,13,14,14,15,15,16,16,17,17,18,18,21,21,22,22,23,23,24,24,25,25,26,26,28,28,29,29,30,30,34,34,35,35,37,37,39,39,40,40,41,41,43,43,44,44,45,45,46,46,47,47,49,49],"right_children":[2,4,6,8,10,12,14,16,18,20,-1,22,24,26,28,30,32,34,36,-1,-1,38,40,42,44,46,48,-1,50,52,54,-1,-1,-1,56,58,-1,60,-1,62,64,66,-1,68,70,72,74,76,-1,78,-1,-1,-1,-1,-1,-1,-1,-1,-1,-1,-1,-1,-1,-1,-1,-1,-1,-1,-1,-1,-1,-1,-1,-1,-1,-1,-1,-1,-1],"split_conditions":[-1.2181282E0,-3.249598E-1,-8.714782E-1,-1.216789E0,1.1703174E0,3.831422E-2,-5.2482814E-1,1.0834855E0,-6.4987147E-1,2E0,2.9548609E1,-5.2037024E-1,2E0,1.1840909E0,1.5430608E0,2.1130428E1,2E0,2E0,2E0,1.9422632E1,1.11142235E1,7.900864E1,2E0,1.4569769E0,4.6529034E-1,9.077616E-1,2E0,-2.658242E0,-1.7817812E-1,3E0,-1.2589701E0,2.2874995E-1,1.5727968E0,4.0421405E0,5E0,5E0,3.568376E0,1E0,-2.6323538E0,5E0,-5.273417E-1,2.5266314E-1,2.1443384E1,5E0,8.6041546E-1,3.4219038E-1,2E0,1E0,-2.1865E0,1E0,-2.599016E0,6.7875E-1,-1.0378125E0,-1.6996875E0,-4.741406E-1,1.8208596E0,1.633594E-1,1.0066711E1,2.6227968E0,7.072705E-1,-1.8569728E0,2.1139455E0,-4.2729523E-2,-6.917969E-1,-2.3294365E0,6.922821E0,1.2103304E1,-1.6350001E0,3.5859346E-2,2.0760562E0,4.9378834E0,-2.6214533E0,-1.035E0,5.222009E0,-2.2465E0,1.115625E0,9.870953E0,4.693711E0,-2.3524554E0],"split_indices":[6,4,6,4,4,4,6,5,5,1,0,4,1,4,4,2,0,1,1,0,0,3,1,4,4,4,1,0,6,0,4,0,0,0,0,0,0,0,0,0,5,4,0,0,4,4,1,0,0,1,0,0,0,0,0,0,0,0,0,0,0,0,0,0,0,0,0,0,0,0,0,0,0,0,0,0,0,0,0],"split_type":[0,0,0,0,0,0,0,0,0,0,0,0,0,0,0,0,0,0,0,0,0,0,0,0,0,0,0,0,0,0,0,0,0,0,0,0,0,0,0,0,0,0,0,0,0,0,0,0,0,0,0,0,0,0,0,0,0,0,0,0,0,0,0,0,0,0,0,0,0,0,0,0,0,0,0,0,0,0,0],"sum_hessian":[8E2,8E1,7.2E2,3.2E1,4.8E1,8.5E1,6.35E2,1E1,2.2E1,3.6E1,1.2E1,4.3E1,4.2E1,7.1E1,5.64E2,8E0,2E0,7E0,1.5E1,2.3E1,1.3E1,2.7E1,1.6E1,2.8E1,1.4E1,5.8E1,1.3E1,5.16E2,4.8E1,3E0,5E0,1E0,1E0,5E0,2E0,1.2E1,3E0,3E0,2.4E1,8E0,8E0,2.1E1,7E0,3E0,1.1E1,5.1E1,7E0,9E0,4E0,1.3E1,3.5E1,1E0,2E0,4E0,1E0,1E0,1E0,1.1E1,1E0,1E0,2E0,7E0,1E0,2E0,6E0,7E0,1.4E1,2E0,1E0,4E0,7E0,3.9E1,1.2E1,3E0,4E0,1E0,8E0,3E0,1E1],"tree_param":{"num_deleted":"0","num_feature":"7","num_nodes":"79","size_leaf_vector":"1"}},{"base_weights":[2.918287E-1,3.461985E1,-3.5651221E0,1.8991554E1,5.795719E1,1.0843092E1,-5.5077972E0,4.493987E0,2.85068E1,2.4405703E1,1.308756E1,-3.9003038E0,2.567719E1,-8.1150234E-1,-6.0965147E0,-2.737617E0,1.0145825E1,1.1330335E1,1.9203238E1,-5.965508E0,-2.6936162E-1,3.4261642E1,7.368774E0,-5.25481E0,1.1003839E1,-5.0645065E0,-1.8732418E0,-3.7082028E0,-3.5468793E-1,3.8792937E0,3.660415E0,3.0263245E0,6.3696074E0,-2.711979E0,-1.8742357E0,4.5924582E0,-5.1012526E0,2.5993988E1,5.2714985E1,-3.2191992E0,1.0284034E1,-1.8150728E0,-1.6676825E0,2.3019009E1,-1.871711E0,-1.8605593E0,-1.3260202E0,-1.3972498E0,-5.495566E-1,5.142499E-1,-9.8418766E-1,1.4933201E0,3.3688736E-1,6.011799E-1,-1.4855782E0,1.5590347E0,-3.6320116E-2,-1.660955E0,-2.428711E-1,5.2562447E0,8.875295E0,1.6789711E1,4.4939976E0,-1.3080001E0,3.0480482E-2,3.4911706E0,7.03606E-1,2.1807296E0,-2.3438573E0,8.7702875E0,3.5794034E0,2.8770022E0,-1.7728806E0],"categories":[],"categories_nodes":[],"categories_segments":[],"categories_sizes":[],"default_left":[0,0,0,0,0,0,0,0,0,0,0,0,0,0,0,0,0,0,0,0,0,0,0,0,0,0,0,0,0,0,0,0,0,0,0,0,0,0,0,0,0,0,0,0,0,0,0,0,0,0,0,0,0,0,0,0,0,0,0,0,0,0,0,0,0,0,0,0,0,0,0,0,0],"id":2,"left_children":[1,3,5,7,9,11,13,15,17,-1,-1,19,21,23,25,27,29,-1,31,33,35,37,39,41,43,45,-1,47,49,-1,51,-1,-1,53,-1,55,57,59,61,63,65,-1,67,69,-1,-1,71,-1,-1,-1,-1,-1,-1,-1,-1,-1,-1,-1,-1,-1,-1,-1,-1,-1,-1,-1,-1,-1,-1,-1,-1,-1,-1],"loss_changes":[1.0617701E5,2.844186E4,2.0240852E4,6.769287E3,7.1805547E3,1.8908777E4,1.7534609E3,8.860843E2,1.8595391E3,0E0,0E0,3.2833313E2,6.50575E3,3.8377651E3,5.4453125E1,2.1813103E1,1.6942163E2,0E0,1.0020361E2,8.741821E0,4.227876E2,3.0541367E3,4.961068E2,1.4113574E2,4.2871377E3,3.1492798E2,0E0,3.936615E0,2.983689E1,0E0,1.1123413E1,0E0,0E0,5.2176926E1,0E0,2.6265625E1,1.232991E1,1.5092969E2,1.4296289E2,1.559647E1,1.0161804E2,0E0,6.6089124E2,4.7815186E2,0E0,0E0,1.00732855E3,0E0,0E0,0E0,0E0,0E0,0E0,0E0,0E0,0E0,0E0,0E0,0E0,0E0,0E0,0E0,0E0,0E0,0E0,0E0,0E0,0E0,0E0,0E0,0E0,0E0,0E0],"parents":[2147483647,0,0,1,1,2,2,3,3,4,4,5,5,6,6,7,7,8,8,11,11,12,12,13,13,14,14,15,15,16,16,18,18,19,19,20,20,21,21,22,22,23,23,24,24,25,25,27,27,28,28,30,30,33,33,35,35,36,36,37,37,38,38,39,39,40,40,42,42,43,43,46,46],"right_children":[2,4,6,8,10,12,14,16,18,-1,-1,20,22,24,26,28,30,-1,32,34,36,38,40,42,44,46,-1,48,50,-1,52,-1,-1,54,-1,56,58,60,62,64,66,-1,68,70,-1,-1,72,-1,-1,-1,-1,-1,-1,-1,-1,-1,-1,-1,-1,-1,-1,-1,-1,-1,-1,-1,-1,-1,-1,-1,-1,-1,-1],"split_conditions":[-1.2181282E0,4.205267E-1,-8.714782E-1,-8.6642754E-1,1E0,3.831422E-2,-5.2482814E-1,-1.2400316E0,1E0,2.4405703E1,1.308756E1,-5.2037024E-1,2E0,9.594119E-1,-1.7817812E-1,1.715838E-2,7.909872E1,1.1330335E1,-4.4547728E-1,7.900864E1,2E0,1.4569769E0,4.6529034E-1,4.6529034E-1,2E0,9.516644E-1,-1.8732418E0,2E0,2E0,3.8792937E0,3E0,3.0263245E0,6.3696074E0,1E0,-1.8742357E0,5E0,5E0,2.6815823E-1,5E0,5E0,2.1198133E1,-1.8150728E0,2E0,1E0,-1.871711E0,-1.8605593E0,1E0,-1.3972498E0,-5.495566E-1,5.142499E-1,-9.8418766E-1,1.4933201E0,3.3688736E-1,6.011799E-1,-1.4855782E0,1.5590347E0,-3.6320116E-2,-1.660955E0,-2.428711E-1,5.2562447E0,8.875295E0,1.6789711E1,4.4939976E0,-1.3080001E0,3.0480482E-2,3.4911706E0,7.03606E-1,2.1807296E0,-2.3438573E0,8.7702875E0,3.5794034E0,2.8770022E0,-1.7728806E0],"split_indices":[6,4,6,4,1,4,6,4,1,0,0,4,1,4,6,5,3,0,4,3,1,4,4,4,1,4,0,1,1,0,0,0,0,0,0,0,0,4,0,0,2,0,1,1,0,0,1,0,0,0,0,0,0,0,0,0,0,0,0,0,0,0,0,0,0,0,0,0,0,0,0,0,0],"split_type":[0,0,0,0,0,0,0,0,0,0,0,0,0,0,0,0,0,0,0,0,0,0,0,0,0,0,0,0,0,0,0,0,0,0,0,0,0,0,0,0,0,0,0,0,0,0,0,0,0,0,0,0,0,0,0,0,0,0,0,0,0,0,0,0,0,0,0,0,0,0,0,0,0],"sum_hessian":[8E2,8E1,7.2E2,4.9E1,3.1E1,8.5E1,6.35E2,2E1,2.9E1,1E1,2.1E1,4.3E1,4.2E1,7.1E1,5.64E2,9E0,1.1E1,1.3E1,1.6E1,2.7E1,1.6E1,2.8E1,1.4E1,5.2E1,1.9E1,7.5E1,4.89E2,6E0,3E0,7E0,4E0,4E0,1.2E1,3E0,2.4E1,8E0,8E0,2.1E1,7E0,3E0,1.1E1,4.2E1,1E1,1.1E1,8E0,5.7E1,1.8E1,3E0,3E0,2E0,1E0,2E0,2E0,1E0,2E0,7E0,1E0,7E0,1E0,8E0,1.3E1,6E0,1E0,2E0,1E0,9E0,2E0,4E0,6E0,6E0,5E0,5E0,1.3E1],"tree_param":{"num_deleted":"0","num_feature":"7","num_nodes":"73","size_leaf_vector":"1"}},{"base_weights":[3.3233905E-1,2.4993305E1,-2.4386327E0,1.4056371E1,4.311755E1,7.999382E0,-3.8462281E0,3.302589E0,2.0674278E1,5.31937E1,6.263249E0,-2.8015704E0,1.8865488E1,-4.4999894E-1,-4.2722144E0,-2.1580062E0,7.5778694E0,2.7093298E1,1.4176526E1,1.8776217E1,3.981819E1,-4.2743783E0,-2.1097127E-1,2.5204365E1,5.3526254E0,-3.0965385E0,1.0735417E1,-1.3075333E0,-3.275215E0,-2.873857E0,-3.657658E-1,2.860979E0,2.9283319E0,3.3653114E0,8.601839E0,2.3000064E0,1.5488859E1,3.4894502E0,1.2442115E1,-2.119485E0,-1.3344558E0,3.3839116E0,-3.7824128E0,1.8838135E1,3.956095E1,-1.7666382E0,8.102052E0,1.1192765E0,-4.432998E0,1.7050467E1,-1.2125293E0,-3.6661884E-1,-1.2946074E0,-1.0828687E0,-4.2590633E-1,4.1139996E-1,-8.365594E-1,1.194656E0,2.6950988E-1,1.2766217E0,4.8076897E0,5.110029E-1,-1.1884626E0,1.5378945E0,4.974973E-1,-1.3897265E0,-4.6853906E-1,6.0806274E0,2.199945E0,1.5488312E1,6.5986085E0,-1.0464001E0,1.6308089E-1,2.7831242E0,5.628849E-1,-9.898705E-1,4.2287974E0,-1.4303746E0,-4.3841514E-1,2.2022345E0,6.690038E0,2.9903007E0,-1.2273637E0],"categories":[],"categories_nodes":[],"categories_segments":[],"categories_sizes":[],"default_left":[0,0,0,0,0,0,0,0,0,0,0,0,0,0,0,0,0,0,0,0,0,0,0,0,0,0,0,0,0,0,0,0,0,0,0,0,0,0,0,0,0,0,0,0,0,0,0,0,0,0,0,0,0,0,0,0,0,0,0,0,0,0,0,0,0,0,0,0,0,0,0,0,0,0,0,0,0,0,0,0,0,0,0],"id":3,"left_children":[1,3,5,7,9,11,13,15,17,19,-1,21,23,25,27,29,31,33,35,-1,37,39,41,43,45,47,49,-1,51,53,55,-1,57,-1,-1,-1,59,-1,-1,61,-1,63,65,67,69,71,73,75,77,79,-1,81,-1,-1,-1,-1,-1,-1,-1,-1,-1,-1,-1,-1,-1,-1,-1,-1,-1,-1,-1,-1,-1,-1,-1,-1,-1,-1,-1,-1,-1,-1,-1],"loss_changes":[5.4797156E4,1.5450039E4,1.0624061E4,3.6324336E3,5.6122734E3,1.0146182E4,9.18209E2,5.066101E2,9.506045E2,2.0792969E1,0E0,1.6697824E2,3.5483154E3,2.164633E3,3.429883E1,1.1778606E1,8.13598E1,5.4490234E1,3.5027344E1,0E0,3.0898438E1,1.0592041E0,2.3106088E2,1.9052676E3,3.0792178E2,3.3738348E2,1.3753748E3,0E0,1.4666028E2,2.3644295E0,2.0658339E1,0E0,7.1189804E0,0E0,0E0,0E0,1.6221924E1,0E0,0E0,3.491533E1,0E0,1.855893E1,9.752975E0,2.134707E2,5.601074E2,2.1779892E1,6.30636E1,9.06642E2,3.78183E1,3.460249E2,0E0,5.796541E2,0E0,0E0,0E0,0E0,0E0,0E0,0E0,0E0,0E0,0E0,0E0,0E0,0E0,0E0,0E0,0E0,0E0,0E0,0E0,0E0,0E0,0E0,0E0,0E0,0E0,0E0,0E0,0E0,0E0,0E0,0E0],"parents":[2147483647,0,0,1,1,2,2,3,3,4,4,5,5,6,6,7,7,8,8,9,9,11,11,12,12,13,13,14,14,15,15,16,16,17,17,18,18,20,20,21,21,22,22,23,23,24,24,25,25,26,26,28,28,29,29,30,30,32,32,36,36,39,39,41,41,42,42,43,43,44,44,45,45,46,46,47,47,48,48,49,49,51,51],"right_children":[2,4,6,8,10,12,14,16,18,20,-1,22,24,26,28,30,32,34,36,-1,38,40,42,44,46,48,50,-1,52,54,56,-1,58,-1,-1,-1,60,-1,-1,62,-1,64,66,68,70,72,74,76,78,80,-1,82,-1,-1,-1,-1,-1,-1,-1,-1,-1,-1,-1,-1,-1,-1,-1,-1,-1,-1,-1,-1,-1,-1,-1,-1,-1,-1,-1,-1,-1,-1,-1],"split_conditions":[-1.2181282E0,5.8236444E-1,-8.714782E-1,-8.6642754E-1,2E0,3.831422E-2,-5.2482814E-1,-1.2400316E0,1E0,1E0,6.263249E0,-5.2037024E-1,2E0,1.1840909E0,1.5430608E0,1.715838E-2,7.909872E1,2.1087004E1,-4.4547728E-1,1.8776217E1,6.495099E-1,7.900864E1,2E0,1.4569769E0,6.16798E-1,1E0,2E0,-1.3075333E0,-1.7817812E-1,2E0,2E0,2.860979E0,3E0,3.3653114E0,8.601839E0,2.3000064E0,7.900864E1,3.4894502E0,1.2442115E1,1E0,-1.3344558E0,-9.869143E-1,2.116622E1,2.1208096E1,1E0,2.3028131E-1,2.1198133E1,3.5252044E-1,1.5121675E0,2.1155743E1,-1.2125293E0,1E0,-1.2946074E0,-1.0828687E0,-4.2590633E-1,4.1139996E-1,-8.365594E-1,1.194656E0,2.6950988E-1,1.2766217E0,4.8076897E0,5.110029E-1,-1.1884626E0,1.5378945E0,4.974973E-1,-1.3897265E0,-4.6853906E-1,6.0806274E0,2.199945E0,1.5488312E1,6.5986085E0,-1.0464001E0,1.6308089E-1,2.7831242E0,5.628849E-1,-9.898705E-1,4.2287974E0,-1.4303746E0,-4.3841514E-1,2.2022345E0,6.690038E0,2.9903007E0,-1.2273637E0],"split_indices":[6,4,6,4,1,4,6,4,1,1,0,4,1,4,4,5,3,2,4,0,4,3,1,4,4,1,1,0,6,1,1,0,0,0,0,0,3,0,0,0,0,5,2,2,1,4,2,4,5,2,0,1,0,0,0,0,0,0,0,0,0,0,0,0,0,0,0,0,0,0,0,0,0,0,0,0,0,0,0,0,0,0,0],"split_type":[0,0,0,0,0,0,0,0,0,0,0,0,0,0,0,0,0,0,0,0,0,0,0,0,0,0,0,0,0,0,0,0,0,0,0,0,0,0,0,0,0,0,0,0,0,0,0,0,0,0,0,0,0,0,0,0,0,0,0,0,0,0,0,0,0,0,0,0,0,0,0,0,0,0,0,0,0,0,0,0,0,0,0],"sum_hessian":[8E2,8E1,7.2E2,5.1E1,2.9E1,8.5E1,6.35E2,2E1,3.1E1,1.9E1,1E1,4.3E1,4.2E1,7.1E1,5.64E2,9E0,1.1E1,1.4E1,1.7E1,9E0,1E1,2.7E1,1.6E1,2.8E1,1.4E1,5.8E1,1.3E1,5.16E2,4.8E1,6E0,3E0,7E0,4E0,2E0,1.2E1,4E0,1.3E1,1E0,9E0,3E0,2.4E1,8E0,8E0,2.1E1,7E0,4E0,1E1,1.4E1,4.4E1,9E0,4E0,1.3E1,3.5E1,3E0,3E0,2E0,1E0,2E0,2E0,1E0,1.2E1,1E0,2E0,3E0,5E0,5E0,3E0,1.8E1,3E0,3E0,4E0,2E0,2E0,8E0,2E0,1.1E1,3E0,3.9E1,5E0,4E0,5E0,3E0,1E1],"tree_param":{"num_deleted":"0","num_feature":"7","num_nodes":"83","size_leaf_vector":"1"}},{"base_weights":[3.6112645E-1,1.8281902E1,-1.6526655E0,1.2918767E1,3.926222E1,5.959979E0,-2.6794498E0,3.6586738E0,1.8123137E1,1.6560669E1,8.099513E0,-6.026845E-1,1.601472E1,-1.8930648E-1,-2.9920354E0,-1.7039979E0,6.7816763E0,2.095612E1,1.0191397E1,-2.002799E0,5.618088E0,2.1702911E1,5.1566496E0,-1.9892329E0,8.976095E0,-9.16032E-1,-2.2830927E0,-2.2272394E0,-3.623259E-1,1.7147441E0,7.819065E0,1.210009E1,2.4175367E1,3.2231443E0,5.3435785E-1,-3.0183942E0,-3.6857784E-2,8.06901E0,-2.7903998E0,1.5589052E1,3.0453531E1,2.9597049E0,2.807955E0,1.5159185E0,-3.1651719E0,6.059258E0,2.991449E0,-1.3070938E-1,-9.1701347E-1,-8.3922327E-1,-3.3007744E-1,3.2911998E-1,-7.1107554E-1,6.5396714E-1,4.7895815E-2,2.79996E0,1.0589432E0,3.986332E-1,3.9447787E0,2.6947653E0,7.862542E0,-6.196459E-1,-1.0031786E0,9.4116527E-1,-8.5624886E-1,3.0917122E0,9.767659E-1,-2.5283998E-1,-1.00284E0,4.998283E0,8.7389946E-2,1.2003442E1,5.014942E0,1.3046475E-1,1.0609651E0,-9.237597E-1,2.906294E0,-6.183728E-1,-1.1403675E0,-6.437275E-1,2.25911E0,2.3174827E0,-8.9262825E-1],"categories":[],"categories_nodes":[],"categories_segments":[],"categories_sizes":[],"default_left":[0,0,0,0,0,0,0,0,0,0,0,0,0,0,0,0,0,0,0,0,0,0,0,0,0,0,0,0,0,0,0,0,0,0,0,0,0,0,0,0,0,0,0,0,0,0,0,0,0,0,0,0,0,0,0,0,0,0,0,0,0,0,0,0,0,0,0,0,0,0,0,0,0,0,0,0,0,0,0,0,0,0,0],"id":4,"left_children":[1,3,5,7,9,11,13,15,17,-1,-1,19,21,23,25,27,29,31,33,35,37,39,41,43,45,-1,47,49,51,53,55,57,59,-1,-1,61,63,65,67,69,71,73,-1,75,77,-1,79,81,-1,-1,-1,-1,-1,-1,-1,-1,-1,-1,-1,-1,-1,-1,-1,-1,-1,-1,-1,-1,-1,-1,-1,-1,-1,-1,-1,-1,-1,-1,-1,-1,-1,-1,-1],"loss_changes":[2.8937275E4,8.606924E3,5.6516973E3,3.1144277E3,1.6374004E3,5.6844385E3,4.9448438E2,4.302469E2,7.301885E2,0E0,0E0,4.7287094E2,1.9880195E3,1.2056432E3,1.7625E1,6.213196E0,7.0694336E1,5.6276855E2,4.126062E1,8.773917E1,2.2860126E2,7.0225977E2,9.2342224E1,2.5623062E2,7.454555E2,0E0,8.119154E1,1.4201355E0,1.4321732E1,2.545354E0,5.148419E1,9.553699E1,4.132412E2,0E0,0E0,2.0890808E0,1.5203154E2,5.2569824E1,4.1025352E-1,2.4110938E2,3.815337E2,1.3026329E1,0E0,6.3063104E2,2.446402E1,0E0,2.2601459E2,3.3584457E2,0E0,0E0,0E0,0E0,0E0,0E0,0E0,0E0,0E0,0E0,0E0,0E0,0E0,0E0,0E0,0E0,0E0,0E0,0E0,0E0,0E0,0E0,0E0,0E0,0E0,0E0,0E0,0E0,0E0,0E0,0E0,0E0,0E0,0E0,0E0],"parents":[2147483647,0,0,1,1,2,2,3,3,4,4,5,5,6,6,7,7,8,8,11,11,12,12,13,13,14,14,15,15,16,16,17,17,18,18,19,19,20,20,21,21,22,22,23,23,24,24,26,26,27,27,28,28,29,29,30,30,31,31,32,32,35,35,36,36,37,37,38,38,39,39,40,40,41,41,43,43,44,44,46,46,47,47],"right_children":[2,4,6,8,10,12,14,16,18,-1,-1,20,22,24,26,28,30,32,34,36,38,40,42,44,46,-1,48,50,52,54,56,58,60,-1,-1,62,64,66,68,70,72,74,-1,76,78,-1,80,82,-1,-1,-1,-1,-1,-1,-1,-1,-1,-1,-1,-1,-1,-1,-1,-1,-1,-1,-1,-1,-1,-1,-1,-1,-1,-1,-1,-1,-1,-1,-1,-1,-1,-1,-1],"split_conditions":[-1.2181282E0,1.1066154E0,-8.714782E-1,-4.988493E-1,1E0,2.5266314E-1,-5.2482814E-1,-1.2400316E0,2E0,1.6560669E1,8.099513E0,3.831422E-2,2E0,1.2779224E0,1.5430608E0,1.715838E-2,-9.1076344E-1,-2.6814446E-1,2.12273E1,-4.747458E-1,2E0,1.4569769E0,1.2228286E0,1E0,1E0,-9.16032E-1,-1.7817812E-1,2E0,2E0,2E0,2E0,-5.757857E-1,-1.0678407E0,3.2231443E0,5.3435785E-1,1E0,2E0,1E0,2.1116226E1,1.276702E0,1E0,6.16798E-1,2.807955E0,1.3558902E-1,2E0,6.059258E0,6.650586E-2,1E0,-9.1701347E-1,-8.3922327E-1,-3.3007744E-1,3.2911998E-1,-7.1107554E-1,6.5396714E-1,4.7895815E-2,2.79996E0,1.0589432E0,3.986332E-1,3.9447787E0,2.6947653E0,7.862542E0,-6.196459E-1,-1.0031786E0,9.4116527E-1,-8.5624886E-1,3.0917122E0,9.767659E-1,-2.5283998E-1,-1.00284E0,4.998283E0,8.7389946E-2,1.2003442E1,5.014942E0,1.3046475E-1,1.0609651E0,-9.237597E-1,2.906294E0,-6.183728E-1,-1.1403675E0,-6.437275E-1,2.25911E0,2.3174827E0,-8.9262825E-1],"split_indices":[6,4,6,4,1,4,6,4,1,0,0,4,1,4,4,5,5,4,2,4,1,4,4,1,1,0,6,1,1,1,1,5,5,0,0,0,1,1,2,5,1,4,0,4,1,0,5,1,0,0,0,0,0,0,0,0,0,0,0,0,0,0,0,0,0,0,0,0,0,0,0,0,0,0,0,0,0,0,0,0,0,0,0],"split_type":[0,0,0,0,0,0,0,0,0,0,0,0,0,0,0,0,0,0,0,0,0,0,0,0,0,0,0,0,0,0,0,0,0,0,0,0,0,0,0,0,0,0,0,0,0,0,0,0,0,0,0,0,0,0,0,0,0,0,0,0,0,0,0,0,0,0,0,0,0,0,0,0,0,0,0,0,0,0,0,0,0,0,0],"sum_hessian":[8E2,8E1,7.2E2,6.5E1,1.5E1,8.5E1,6.35E2,2.4E1,4.1E1,5E0,1E1,5.2E1,3.3E1,7.1E1,5.64E2,9E0,1.5E1,2.9E1,1.2E1,4.3E1,9E0,2.1E1,1.2E1,6E1,1.1E1,5.16E2,4.8E1,6E0,3E0,3E0,1.2E1,9E0,2E1,1.1E1,1E0,2.8E1,1.5E1,7E0,2E0,1.4E1,7E0,9E0,3E0,1.5E1,4.5E1,3E0,8E0,1.3E1,3.5E1,3E0,3E0,2E0,1E0,2E0,1E0,8E0,4E0,1E0,8E0,3E0,1.7E1,9E0,1.9E1,7E0,8E0,4E0,3E0,1E0,1E0,1.3E1,1E0,3E0,4E0,2E0,7E0,1E1,5E0,1.8E1,2.7E1,4E0,4E0,3E0,1E1],"tree_param":{"num_deleted":"0","num_feature":"7","num_nodes":"83","size_leaf_vector":"1"}},{"base_weights":[3.5415745E-1,1.3369281E1,-1.1085044E0,9.371436E0,2.9024813E1,4.490338E0,-1.8638376E0,1.6298349E0,1.2701919E1,3.4175694E1,3.25732E0,1.1707287E0,1.613471E1,-2.2814026E-2,-2.0951471E0,-1.347924E0,3.9754813E0,1.5056722E1,6.831543E0,2.63931E0,3.5682995E1,-1.436912E0,5.713347E0,9.202886E0,1.0211871E1,-1.3887943E0,6.92282E0,-1.671718E0,-6.469638E-1,-7.361336E-1,-7.6473814E-1,4.51606E0,8.483925E-1,1.0836682E1,1.8599468E1,4.664448E0,2.7914336E0,2.9393098E0,1.1187527E1,-2.2198462E0,-6.284854E-2,1.0729302E1,1.0058601E0,3.7635348E0,5.753148E0,1.1850511E0,-2.2538538E0,1.5653082E1,2.2735016E0,-6.5644664E-1,-7.2396556E-3,1.7154379E-1,-5.0430936E-1,5.2317375E-1,1.4973323E0,3.4106514E-1,4.07115E-2,2.2099335E0,4.1459684E0,2.2289648E0,6.181661E0,3.0614865E-1,1.486783E0,-7.497507E-1,-4.05744E-1,5.9230167E-1,-6.279158E-1,6.8764746E-1,3.3863814E0,-4.168231E-1,6.3087285E-1,8.44238E-1,2.1761649E0,-5.5937356E-1,2.4801457E0,-7.407578E-1,-1.220186E-1,1.0806165E0,5.540822E0,-4.892328E-1,1.7169237E0,1.5839405E0,-6.817792E-1],"categories":[],"categories_nodes":[],"categories_segments":[],"categories_sizes":[],"default_left":[0,0,0,0,0,0,0,0,0,0,0,0,0,0,0,0,0,0,0,0,0,0,0,0,0,0,0,0,0,0,0,0,0,0,0,0,0,0,0,0,0,0,0,0,0,0,0,0,0,0,0,0,0,0,0,0,0,0,0,0,0,0,0,0,0,0,0,0,0,0,0,0,0,0,0,0,0,0,0,0,0,0,0],"id":5,"left_children":[1,3,5,7,9,11,13,15,17,19,-1,21,23,25,27,29,31,33,35,-1,37,39,41,-1,43,45,47,49,-1,-1,51,53,55,57,59,61,-1,-1,-1,63,65,67,69,-1,71,73,75,77,79,-1,81,-1,-1,-1,-1,-1,-1,-1,-1,-1,-1,-1,-1,-1,-1,-1,-1,-1,-1,-1,-1,-1,-1,-1,-1,-1,-1,-1,-1,-1,-1,-1,-1],"loss_changes":[1.5263236E4,4.7976562E3,3.0574722E3,1.6809937E3,1.1261533E3,3.3054204E3,2.7079028E2,1.5203879E2,5.330244E2,1.4509863E2,0E0,8.137046E2,1.3231587E3,6.9272156E2,1.108374E1,4.572687E0,1.6453873E1,2.7686035E2,3.6994385E1,0E0,9.2703125E1,4.7195763E1,5.795214E2,0E0,8.387549E1,1.3848921E2,4.5148993E2,6.531369E1,0E0,0E0,1.0758612E1,4.464966E0,4.6253157E-1,7.4188354E1,2.0541406E2,5.564438E0,0E0,0E0,0E0,3.4036255E0,7.44428E1,3.0685669E1,3.9710022E1,0E0,1.0461502E1,3.6097925E2,1.7292557E1,6.923065E1,1.3054602E2,0E0,2.395626E2,0E0,0E0,0E0,0E0,0E0,0E0,0E0,0E0,0E0,0E0,0E0,0E0,0E0,0E0,0E0,0E0,0E0,0E0,0E0,0E0,0E0,0E0,0E0,0E0,0E0,0E0,0E0,0E0,0E0,0E0,0E0,0E0],"parents":[2147483647,0,0,1,1,2,2,3,3,4,4,5,5,6,6,7,7,8,8,9,9,11,11,12,12,13,13,14,14,15,15,16,16,17,17,18,18,20,20,21,21,22,22,24,24,25,25,26,26,27,27,30,30,31,31,32,32,33,33,34,34,35,35,39,39,40,40,41,41,42,42,44,44,45,45,46,46,47,47,48,48,50,50],"right_children":[2,4,6,8,10,12,14,16,18,20,-1,22,24,26,28,30,32,34,36,-1,38,40,42,-1,44,46,48,50,-1,-1,52,54,56,58,60,62,-1,-1,-1,64,66,68,70,-1,72,74,76,78,80,-1,82,-1,-1,-1,-1,-1,-1,-1,-1,-1,-1,-1,-1,-1,-1,-1,-1,-1,-1,-1,-1,-1,-1,-1,-1,-1,-1,-1,-1,-1,-1,-1,-1],"split_conditions":[-1.2181282E0,1.1066154E0,-8.714782E-1,-8.6642754E-1,2E0,9.21535E-1,-5.2482814E-1,-1.2400316E0,2E0,2.1091066E1,3.25732E0,3.831422E-2,1E0,1.2779224E0,-1.7817812E-1,7.901501E1,7.9116905E1,-1.7640311E-2,7.4764556E-1,2.63931E0,1E0,-5.2037024E-1,1E0,9.202886E0,2E0,1E0,1E0,9.516644E-1,-6.469638E-1,-7.361336E-1,7.9046684E1,-9.1076344E-1,3E0,7.90959E1,7.905205E1,1E0,2.7914336E0,2.9393098E0,1.1187527E1,-8.543758E-1,2E0,7.902573E1,-7.9855925E-1,3.7635348E0,1.2228286E0,3.5252044E-1,1.5121675E0,4E0,6.650586E-2,-6.5644664E-1,1E0,1.7154379E-1,-5.0430936E-1,5.2317375E-1,1.4973323E0,3.4106514E-1,4.07115E-2,2.2099335E0,4.1459684E0,2.2289648E0,6.181661E0,3.0614865E-1,1.486783E0,-7.497507E-1,-4.05744E-1,5.9230167E-1,-6.279158E-1,6.8764746E-1,3.3863814E0,-4.168231E-1,6.3087285E-1,8.44238E-1,2.1761649E0,-5.5937356E-1,2.4801457E0,-7.407578E-1,-1.220186E-1,1.0806165E0,5.540822E0,-4.892328E-1,1.7169237E0,1.5839405E0,-6.817792E-1],"split_indices":[6,4,6,4,1,4,6,4,1,2,0,4,1,4,6,3,3,4,4,0,0,4,1,0,1,1,1,4,0,0,3,5,0,3,3,0,0,0,0,4,1,3,5,0,4,4,5,0,5,0,1,0,0,0,0,0,0,0,0,0,0,0,0,0,0,0,0,0,0,0,0,0,0,0,0,0,0,0,0,0,0,0,0],"split_type":[0,0,0,0,0,0,0,0,0,0,0,0,0,0,0,0,0,0,0,0,0,0,0,0,0,0,0,0,0,0,0,0,0,0,0,0,0,0,0,0,0,0,0,0,0,0,0,0,0,0,0,0,0,0,0,0,0,0,0,0,0,0,0,0,0,0,0,0,0,0,0,0,0,0,0,0,0,0,0,0,0,0,0],"sum_hessian":[8E2,8E1,7.2E2,6.5E1,1.5E1,8.5E1,6.35E2,2E1,4.5E1,1.1E1,4E0,6.7E1,1.8E1,7.1E1,5.64E2,9E0,1.1E1,3.1E1,1.4E1,1E0,1E1,4.3E1,2.4E1,4E0,1.4E1,6E1,1.1E1,7.5E1,4.89E2,2E0,7E0,9E0,2E0,1.6E1,1.5E1,9E0,5E0,1E0,9E0,2.7E1,1.6E1,1.1E1,1.3E1,8E0,6E0,1.5E1,4.5E1,3E0,8E0,5.7E1,1.8E1,3E0,4E0,2E0,7E0,1E0,1E0,9E0,7E0,3E0,1.2E1,1E0,8E0,1.9E1,8E0,8E0,8E0,1E0,1E1,4E0,9E0,3E0,3E0,1.1E1,4E0,4E1,5E0,1E0,2E0,4E0,4E0,5E0,1.3E1],"tree_param":{"num_deleted":"0","num_feature":"7","num_nodes":"83","size_leaf_vector":"1"}},{"base_weights":[3.331753E-1,9.861061E0,-7.376873E-1,7.1919208E0,2.3269493E1,3.3651404E0,-1.2913122E0,2.2893968E0,1.0289034E1,9.623616E0,1.3753886E1,8.650533E-1,1.2135708E1,1.077403E-1,-1.467313E0,-1.0504369E0,3.9267094E0,1.2033598E1,6.346577E0,1.1396484E0,4.3900046E0,-1.0329092E0,4.170865E0,6.9941926E0,7.6005726E0,-9.5481175E-1,5.500068E0,-4.5025498E-1,-1.0835211E0,-5.889068E-1,-5.769125E-1,5.7978306E0,2.3520696E0,6.0474596E0,1.3741004E1,5.2940255E-1,7.3449965E0,-1.5861143E0,3.4332186E-2,7.8500123E0,7.193911E-1,3.461225E0,8.791133E0,9.4958425E-1,-1.5964535E0,1.2612515E1,1.7278618E0,-5.1551455E-1,-7.705406E-2,3.6299044E-1,-3.0151013E-1,7.734298E-1,2.1642148E0,8.903304E-2,8.2003516E-1,7.3482515E-3,2.0713153E0,1.994572E0,4.5056157E0,2.4140346E0,7.6721424E-1,-2.808694E-1,-5.495251E-1,1.0700079E0,-3.1655672E-1,1.5868784E0,3.4945352E0,3.539403E-1,-7.898906E-1,-1.3810159E-2,1.3048645E0,7.243515E-1,2.7562037E0,-5.1926875E-1,1.7116601E0,-1.1143422E-2,-5.357122E-1,9.18524E-1,4.4326572E0,1.1710452E0,-5.9026104E-1,8.1427777E-1,-4.4016203E-1],"categories":[],"categories_nodes":[],"categories_segments":[],"categories_sizes":[],"default_left":[0,0,0,0,0,0,0,0,0,0,0,0,0,0,0,0,0,0,0,0,0,0,0,0,0,0,0,0,0,0,0,0,0,0,0,0,0,0,0,0,0,0,0,0,0,0,0,0,0,0,0,0,0,0,0,0,0,0,0,0,0,0,0,0,0,0,0,0,0,0,0,0,0,0,0,0,0,0,0,0,0,0,0],"id":6,"left_children":[1,3,5,7,9,11,13,15,17,-1,19,21,23,25,27,29,31,33,35,-1,-1,37,39,-1,41,43,45,-1,47,-1,49,51,53,55,57,-1,59,61,63,65,67,69,71,73,75,77,79,-1,81,-1,-1,-1,-1,-1,-1,-1,-1,-1,-1,-1,-1,-1,-1,-1,-1,-1,-1,-1,-1,-1,-1,-1,-1,-1,-1,-1,-1,-1,-1,-1,-1,-1,-1],"loss_changes":[8.1799224E3,2.7315557E3,1.642045E3,1.0241174E3,6.4851953E2,1.8752397E3,1.5676318E2,1.572386E2,2.1249854E2,0E0,1.4451172E1,4.30961E2,7.860044E2,4.1778482E2,5.645996E0,3.1888237E0,4.2343597E1,2.0308325E2,5.5658325E1,0E0,0E0,2.6032207E1,3.1181476E2,0E0,4.349408E1,7.605432E1,3.0016275E2,0E0,3.1176937E1,0E0,7.336071E0,1.7880249E1,8.594963E0,4.1120697E1,9.045117E1,0E0,1.973993E1,2.9144592E0,6.534084E1,5.509149E1,2.471481E1,1.577813E1,5.6085815E0,2.138473E2,1.35084915E1,3.7394653E1,8.0038345E1,0E0,8.158941E1,0E0,0E0,0E0,0E0,0E0,0E0,0E0,0E0,0E0,0E0,0E0,0E0,0E0,0E0,0E0,0E0,0E0,0E0,0E0,0E0,0E0,0E0,0E0,0E0,0E0,0E0,0E0,0E0,0E0,0E0,0E0,0E0,0E0,0E0],"parents":[2147483647,0,0,1,1,2,2,3,3,4,4,5,5,6,6,7,7,8,8,10,10,11,11,12,12,13,13,14,14,15,15,16,16,17,17,18,18,21,21,22,22,24,24,25,25,26,26,28,28,30,30,31,31,32,32,33,33,34,34,36,36,37,37,38,38,39,39,40,40,41,41,42,42,43,43,44,44,45,45,46,46,48,48],"right_children":[2,4,6,8,10,12,14,16,18,-1,20,22,24,26,28,30,32,34,36,-1,-1,38,40,-1,42,44,46,-1,48,-1,50,52,54,56,58,-1,60,62,64,66,68,70,72,74,76,78,80,-1,82,-1,-1,-1,-1,-1,-1,-1,-1,-1,-1,-1,-1,-1,-1,-1,-1,-1,-1,-1,-1,-1,-1,-1,-1,-1,-1,-1,-1,-1,-1,-1,-1,-1,-1],"split_conditions":[-1.2181282E0,1.1703174E0,-8.714782E-1,-4.0501785E-1,1E0,9.21535E-1,-5.2482814E-1,-1.2400316E0,2E0,9.623616E0,1.2607056E0,3.831422E-2,1E0,1.2779224E0,1.5430608E0,7.901501E1,1E0,-5.757857E-1,7.904357E1,1.1396484E0,4.3900046E0,-4.747458E-1,1E0,6.9941926E0,1.2228286E0,1E0,1E0,-4.5025498E-1,5.3356445E-1,-5.889068E-1,2.1113363E1,7.905928E1,-9.1076344E-1,-3.955486E-1,7.904917E1,5.2940255E-1,5E0,1E0,-9.869143E-1,4.35161E-1,7.9153076E1,1E0,7.8998856E1,1.3558902E-1,7.900864E1,4E0,2E0,-5.1551455E-1,-1.7817812E-1,3.6299044E-1,-3.0151013E-1,7.734298E-1,2.1642148E0,8.903304E-2,8.2003516E-1,7.3482515E-3,2.0713153E0,1.994572E0,4.5056157E0,2.4140346E0,7.6721424E-1,-2.808694E-1,-5.495251E-1,1.0700079E0,-3.1655672E-1,1.5868784E0,3.4945352E0,3.539403E-1,-7.898906E-1,-1.3810159E-2,1.3048645E0,7.243515E-1,2.7562037E0,-5.1926875E-1,1.7116601E0,-1.1143422E-2,-5.357122E-1,9.18524E-1,4.4326572E0,1.1710452E0,-5.9026104E-1,8.1427777E-1,-4.4016203E-1],"split_indices":[6,4,6,4,1,4,6,4,1,0,4,4,1,4,4,3,1,5,3,0,0,4,1,0,4,1,1,0,5,0,2,3,5,4,3,0,0,0,5,4,3,0,3,4,3,0,1,0,6,0,0,0,0,0,0,0,0,0,0,0,0,0,0,0,0,0,0,0,0,0,0,0,0,0,0,0,0,0,0,0,0,0,0],"split_type":[0,0,0,0,0,0,0,0,0,0,0,0,0,0,0,0,0,0,0,0,0,0,0,0,0,0,0,0,0,0,0,0,0,0,0,0,0,0,0,0,0,0,0,0,0,0,0,0,0,0,0,0,0,0,0,0,0,0,0,0,0,0,0,0,0,0,0,0,0,0,0,0,0,0,0,0,0,0,0,0,0,0,0],"sum_hessian":[8E2,8E1,7.2E2,6.8E1,1.2E1,8.5E1,6.35E2,2.7E1,4.1E1,5E0,7E0,6.7E1,1.8E1,7.1E1,5.64E2,9E0,1.8E1,2.7E1,1.4E1,1E0,6E0,4.3E1,2.4E1,4E0,1.4E1,6E1,1.1E1,5.16E2,4.8E1,2E0,7E0,7E0,1.1E1,7E0,2E1,3E0,1.1E1,2.8E1,1.5E1,1.1E1,1.3E1,4E0,1E1,1.5E1,4.5E1,3E0,8E0,2.9E1,1.9E1,1E0,6E0,3E0,4E0,2E0,9E0,1E0,6E0,4E0,1.6E1,9E0,2E0,9E0,1.9E1,3E0,1.2E1,8E0,3E0,1.2E1,1E0,1E0,3E0,1E0,9E0,1E1,5E0,5E0,4E1,1E0,2E0,5E0,3E0,6E0,1.3E1],"tree_param":{"num_deleted":"0","num_feature":"7","num_nodes":"83","size_leaf_vector":"1"}},{"base_weights":[2.9949266E-1,7.2825212E0,-4.8542386E-1,4.609957E0,1.5203344E1,2.5455325E0,-8.945069E-1,7.9122643E0,2.459564E0,2.4059044E1,1.0647508E1,1.3199363E0,1.2884528E1,1.6677256E-1,-1.0281664E0,4.13453E0,1.0790768E1,2.243639E-1,3.7023015E0,3.900942E0,9.234171E0,3.6470068E0,1.5593423E0,-6.794085E-1,3.9273062E0,5.658324E0,6.7527404E0,-6.577856E-1,4.344379E0,-8.1645983E-1,-3.1767127E-1,4.6928387E0,-3.0103013E-1,6.9607983E0,4.22968E0,-6.5262413E-1,1.319868E0,2.0662763E0,4.2237406E0,-1.1825443E-1,-1.4410796E0,6.904428E0,2.2032728E0,7.4887266E0,4.609211E-1,-8.443214E-1,3.2300146E0,1.0166556E1,1.2740355E0,-8.6419925E-2,-1.216963E0,4.6648064E-1,1.565214E0,-9.0379715E-2,2.4123824E0,3.085419E-1,-2.9739612E-1,7.122641E-2,5.116087E-1,3.3509493E-1,9.8283124E-1,1.4750178E0,6.054949E-1,-2.8920412E-1,5.04113E-1,-5.022143E-1,-4.4681367E-2,2.955539E0,1.2597809E0,5.3982433E-2,1.3182557E0,2.5054991E0,6.0554695E-1,-5.9518747E-2,-4.6571037E-1,1.8413178E0,-3.8781118E-1,7.8074515E-1,3.546126E0,-1.6325769E-1,1.5275666E0,-3.2134613E-1,1.1108389E0,-3.1278765E-1,-5.9403455E-1],"categories":[],"categories_nodes":[],"categories_segments":[],"categories_sizes":[],"default_left":[0,0,0,0,0,0,0,0,0,0,0,0,0,0,0,0,0,0,0,0,0,0,0,0,0,0,0,0,0,0,0,0,0,0,0,0,0,0,0,0,0,0,0,0,0,0,0,0,0,0,0,0,0,0,0,0,0,0,0,0,0,0,0,0,0,0,0,0,0,0,0,0,0,0,0,0,0,0,0,0,0,0,0,0,0],"id":7,"left_children":[1,3,5,7,9,11,13,15,17,19,21,23,25,27,29,31,33,35,37,-1,-1,-1,-1,39,41,-1,43,45,47,49,-1,51,-1,53,-1,55,57,59,61,63,65,67,69,71,-1,73,75,77,79,81,83,-1,-1,-1,-1,-1,-1,-1,-1,-1,-1,-1,-1,-1,-1,-1,-1,-1,-1,-1,-1,-1,-1,-1,-1,-1,-1,-1,-1,-1,-1,-1,-1,-1,-1],"loss_changes":[4.393892E3,1.6445938E3,8.9625415E2,4.2081726E2,5.507339E2,1.0727365E3,9.038812E1,2.1636658E2,1.0750227E2,4.5631104E1,6.0180664E1,4.0928464E2,2.024585E2,2.5087457E2,2.8121338E0,3.9131805E1,6.657239E1,1.5272536E1,1.2599762E1,0E0,0E0,0E0,0E0,1.9063255E1,1.5929803E2,0E0,1.1529205E1,4.6965233E1,2.0156046E2,2.2115967E1,0E0,9.992874E0,0E0,6.51944E1,0E0,6.143977E0,2.5160494E0,5.5284996E0,1.7586334E1,4.2692547E1,5.470196E0,5.4306824E1,1.0116697E2,6.744568E0,0E0,2.6675392E1,4.7386536E1,1.9277313E1,6.52465E1,1.084446E2,4.454735E0,0E0,0E0,0E0,0E0,0E0,0E0,0E0,0E0,0E0,0E0,0E0,0E0,0E0,0E0,0E0,0E0,0E0,0E0,0E0,0E0,0E0,0E0,0E0,0E0,0E0,0E0,0E0,0E0,0E0,0E0,0E0,0E0,0E0,0E0],"parents":[2147483647,0,0,1,1,2,2,3,3,4,4,5,5,6,6,7,7,8,8,9,9,10,10,11,11,12,12,13,13,14,14,15,15,16,16,17,17,18,18,23,23,24,24,26,26,27,27,28,28,29,29,31,31,33,33,35,35,36,36,37,37,38,38,39,39,40,40,41,41,42,42,43,43,45,45,46,46,47,47,48,48,49,49,50,50],"right_children":[2,4,6,8,10,12,14,16,18,20,22,24,26,28,30,32,34,36,38,-1,-1,-1,-1,40,42,-1,44,46,48,50,-1,52,-1,54,-1,56,58,60,62,64,66,68,70,72,-1,74,76,78,80,82,84,-1,-1,-1,-1,-1,-1,-1,-1,-1,-1,-1,-1,-1,-1,-1,-1,-1,-1,-1,-1,-1,-1,-1,-1,-1,-1,-1,-1,-1,-1,-1,-1,-1,-1],"split_conditions":[-1.2181282E0,1.0102015E0,-8.714782E-1,1E0,1E0,1.4569769E0,-5.2482814E-1,-1.6528694E-2,-8.7761843E-1,1.413935E0,4E0,7.10261E-2,1E0,1.2779224E0,-1.7817812E-1,5E0,-2.0960741E-1,-1.2400316E0,-3.955486E-1,3.900942E0,9.234171E0,3.6470068E0,1.5593423E0,2E0,1E0,5.658324E0,2E0,1.6925201E0,1E0,1E0,-3.1767127E-1,1E0,-3.0103013E-1,2.3924352E-1,4.22968E0,2.1113363E1,-9.1076344E-1,2.1155743E1,7.9082146E1,-4.747458E-1,2.1178965E1,2.114413E1,8.6041546E-1,2.1184912E1,4.609211E-1,2E0,1E0,4E0,5.726724E-1,8.8107556E-1,1.654109E0,4.6648064E-1,1.565214E0,-9.0379715E-2,2.4123824E0,3.085419E-1,-2.9739612E-1,7.122641E-2,5.116087E-1,3.3509493E-1,9.8283124E-1,1.4750178E0,6.054949E-1,-2.8920412E-1,5.04113E-1,-5.022143E-1,-4.4681367E-2,2.955539E0,1.2597809E0,5.3982433E-2,1.3182557E0,2.5054991E0,6.0554695E-1,-5.9518747E-2,-4.6571037E-1,1.8413178E0,-3.8781118E-1,7.8074515E-1,3.546126E0,-1.6325769E-1,1.5275666E0,-3.2134613E-1,1.1108389E0,-3.1278765E-1,-5.9403455E-1],"split_indices":[6,4,6,1,1,4,6,5,4,4,0,4,1,4,6,0,4,4,4,0,0,0,0,1,1,0,1,5,1,1,0,0,0,5,0,2,5,2,3,4,2,2,4,2,0,1,1,0,5,4,4,0,0,0,0,0,0,0,0,0,0,0,0,0,0,0,0,0,0,0,0,0,0,0,0,0,0,0,0,0,0,0,0,0,0],"split_type":[0,0,0,0,0,0,0,0,0,0,0,0,0,0,0,0,0,0,0,0,0,0,0,0,0,0,0,0,0,0,0,0,0,0,0,0,0,0,0,0,0,0,0,0,0,0,0,0,0,0,0,0,0,0,0,0,0,0,0,0,0,0,0,0,0,0,0,0,0,0,0,0,0,0,0,0,0,0,0,0,0,0,0,0,0],"sum_hessian":[8E2,8E1,7.2E2,6.1E1,1.9E1,8.5E1,6.35E2,2.3E1,3.8E1,5E0,1.4E1,7.7E1,8E0,7.1E1,5.64E2,1.1E1,1.2E1,1.4E1,2.4E1,3E0,2E0,1E1,4E0,4.4E1,3.3E1,3E0,5E0,6E1,1.1E1,7.5E1,4.89E2,1E1,1E0,7E0,5E0,8E0,6E0,7E0,1.7E1,2.6E1,1.8E1,1.1E1,2.2E1,4E0,1E0,5.8E1,2E0,3E0,8E0,2.7E1,4.8E1,2E0,8E0,1E0,6E0,1E0,7E0,2E0,4E0,5E0,2E0,1.2E1,5E0,1.8E1,8E0,1.5E1,3E0,4E0,7E0,1.2E1,1E1,3E0,1E0,3.1E1,2.7E1,1E0,1E0,1E0,2E0,6E0,2E0,2.2E1,5E0,4.1E1,7E0],"tree_param":{"num_deleted":"0","num_feature":"7","num_nodes":"85","size_leaf_vector":"1"}},{"base_weights":[2.7367303E-1,5.475743E0,-3.111277E-1,3.8862956E0,1.34908285E1,1.9503131E0,-6.164308E-1,1.1912274E0,5.5904765E0,1.9030516E1,7.6497097E0,9.326785E-1,9.591068E0,2.0867765E-1,-7.2048634E-1,-5.8062243E-1,2.0610838E0,6.7532954E0,3.0471838E0,3.0232306E0,7.3873353E0,2.5825353E0,9.5469743E-1,-4.829633E-1,2.8348362E0,4.3852005E0,5.3487635E0,-7.933676E-1,2.377964E0,-7.401377E-1,-4.984407E-1,-4.1128284E-1,-2.1167451E-1,4.3923163E-1,2.3377292E0,3.3118157E0,7.7427497E0,2.613592E-1,3.72186E0,-6.100397E-1,1.4994532E0,5.184377E0,1.4244124E0,5.80491E0,3.917828E-1,-1.420988E-1,-1.3000039E0,4.83466E0,-1.2992071E0,-2.2516562E-1,-5.46059E-1,2.5975862E-1,-8.405804E-1,1.724173E-1,-2.3953761E-1,1.6864872E-1,1.0565901E-2,7.72149E-1,1.3700485E-1,1.296869E0,5.5714797E-2,1.352112E0,2.7116017E0,1.5086137E-1,-6.9476515E-2,2.2278672E-1,1.1775566E0,-2.6128876E-1,6.8456054E-2,-4.0833613E-1,1.0830901E0,1.0581425E0,2.6941109E0,3.9033584E-2,8.8936853E-1,1.8838816E0,5.147152E-1,-2.7334148E-1,1.586563E0,-2.8655905E-1,-7.215291E-1,-3.3333495E-2,1.8580825E0,-5.14846E-1,-2.6260534E-1,-2.1690053E-1,2.3544568E-1,1.0065107E0,-2.1378474E-1,-2.6080724E-2,-2.9969126E-1],"categories":[],"categories_nodes":[],"categories_segments":[],"categories_sizes":[],"default_left":[0,0,0,0,0,0,0,0,0,0,0,0,0,0,0,0,0,0,0,0,0,0,0,0,0,0,0,0,0,0,0,0,0,0,0,0,0,0,0,0,0,0,0,0,0,0,0,0,0,0,0,0,0,0,0,0,0,0,0,0,0,0,0,0,0,0,0,0,0,0,0,0,0,0,0,0,0,0,0,0,0,0,0,0,0,0,0,0,0,0,0],"id":8,"left_children":[1,3,5,7,9,11,13,15,17,19,21,23,25,27,29,31,33,35,37,-1,-1,-1,-1,39,41,-1,43,45,47,49,51,-1,53,55,57,59,61,63,65,67,69,71,73,75,-1,77,79,81,83,-1,85,87,89,-1,-1,-1,-1,-1,-1,-1,-1,-1,-1,-1,-1,-1,-1,-1,-1,-1,-1,-1,-1,-1,-1,-1,-1,-1,-1,-1,-1,-1,-1,-1,-1,-1,-1,-1,-1,-1,-1],"loss_changes":[2.438485E3,9.7947485E2,4.9899863E2,3.102494E2,2.7507593E2,6.597473E2,5.4755447E1,4.4351856E1,1.03631836E2,5.2346436E1,6.869629E0,2.087127E2,1.3504486E2,1.5839465E2,2.096466E0,2.6256769E0,7.49807E0,6.970264E1,2.72202E1,0E0,0E0,0E0,0E0,1.2251052E1,1.0197229E2,0E0,5.327942E0,1.631309E1,2.1405614E2,6.351013E-1,1.2929442E1,0E0,4.1504645E0,1.7886281E-1,5.930443E0,2.4483078E1,4.732019E1,5.9267014E-1,4.354248E0,9.603376E0,2.3028751E1,4.3815216E1,4.3469425E1,8.726959E-1,0E0,1.0087529E2,8.371891E0,9.478287E1,2.6501656E-1,0E0,7.632099E0,5.0547142E1,3.971737E0,0E0,0E0,0E0,0E0,0E0,0E0,0E0,0E0,0E0,0E0,0E0,0E0,0E0,0E0,0E0,0E0,0E0,0E0,0E0,0E0,0E0,0E0,0E0,0E0,0E0,0E0,0E0,0E0,0E0,0E0,0E0,0E0,0E0,0E0,0E0,0E0,0E0,0E0],"parents":[2147483647,0,0,1,1,2,2,3,3,4,4,5,5,6,6,7,7,8,8,9,9,10,10,11,11,12,12,13,13,14,14,15,15,16,16,17,17,18,18,23,23,24,24,26,26,27,27,28,28,29,29,30,30,32,32,33,33,34,34,35,35,36,36,37,37,38,38,39,39,40,40,41,41,42,42,43,43,45,45,46,46,47,47,48,48,50,50,51,51,52,52],"right_children":[2,4,6,8,10,12,14,16,18,20,22,24,26,28,30,32,34,36,38,-1,-1,-1,-1,40,42,-1,44,46,48,50,52,-1,54,56,58,60,62,64,66,68,70,72,74,76,-1,78,80,82,84,-1,86,88,90,-1,-1,-1,-1,-1,-1,-1,-1,-1,-1,-1,-1,-1,-1,-1,-1,-1,-1,-1,-1,-1,-1,-1,-1,-1,-1,-1,-1,-1,-1,-1,-1,-1,-1,-1,-1,-1,-1],"split_conditions":[-1.2181282E0,1.1703174E0,-8.714782E-1,-4.0501785E-1,1E0,1.4432034E0,-5.2482814E-1,-1.2400316E0,2E0,1.413935E0,4E0,7.10261E-2,1E0,8.8107556E-1,1.5430608E0,7.901501E1,-9.1076344E-1,-5.757857E-1,7.904357E1,3.0232306E0,7.3873353E0,2.5825353E0,9.5469743E-1,2.1212202E1,1E0,4.3852005E0,2E0,2.1140207E1,2E0,7.9163506E1,1E0,-4.1128284E-1,7.9046684E1,2E0,-4.5838988E-1,7.906387E1,-5.6378067E-2,5E0,1E0,-2.0960741E-1,2E0,7.90959E1,8.6041546E-1,2.1186365E1,3.917828E-1,2.1139225E1,1.3558902E-1,2.1079813E1,7.907084E1,-2.2516562E-1,2.1207617E1,-1.7817812E-1,1E0,1.724173E-1,-2.3953761E-1,1.6864872E-1,1.0565901E-2,7.72149E-1,1.3700485E-1,1.296869E0,5.5714797E-2,1.352112E0,2.7116017E0,1.5086137E-1,-6.9476515E-2,2.2278672E-1,1.1775566E0,-2.6128876E-1,6.8456054E-2,-4.0833613E-1,1.0830901E0,1.0581425E0,2.6941109E0,3.9033584E-2,8.8936853E-1,1.8838816E0,5.147152E-1,-2.7334148E-1,1.586563E0,-2.8655905E-1,-7.215291E-1,-3.3333495E-2,1.8580825E0,-5.14846E-1,-2.6260534E-1,-2.1690053E-1,2.3544568E-1,1.0065107E0,-2.1378474E-1,-2.6080724E-2,-2.9969126E-1],"split_indices":[6,4,6,4,1,4,6,4,1,4,0,4,1,4,4,3,5,5,3,0,0,0,0,2,1,0,1,2,1,3,1,0,3,1,4,3,4,0,0,4,0,3,4,2,0,2,4,2,3,0,2,6,0,0,0,0,0,0,0,0,0,0,0,0,0,0,0,0,0,0,0,0,0,0,0,0,0,0,0,0,0,0,0,0,0,0,0,0,0,0,0],"split_type":[0,0,0,0,0,0,0,0,0,0,0,0,0,0,0,0,0,0,0,0,0,0,0,0,0,0,0,0,0,0,0,0,0,0,0,0,0,0,0,0,0,0,0,0,0,0,0,0,0,0,0,0,0,0,0,0,0,0,0,0,0,0,0,0,0,0,0,0,0,0,0,0,0,0,0,0,0,0,0,0,0,0,0,0,0,0,0,0,0,0,0],"sum_hessian":[8E2,8E1,7.2E2,6.8E1,1.2E1,8.5E1,6.35E2,2.7E1,4.1E1,5E0,7E0,7.6E1,9E0,7.1E1,5.64E2,9E0,1.8E1,2.7E1,1.4E1,3E0,2E0,5E0,2E0,4.4E1,3.2E1,3E0,6E0,4.9E1,2.2E1,5.16E2,4.8E1,2E0,7E0,3E0,1.5E1,7E0,2E1,3E0,1.1E1,4.2E1,2E0,1.1E1,2.1E1,5E0,1E0,2.2E1,2.7E1,1.3E1,9E0,4.87E2,2.9E1,1.5E1,3.3E1,3E0,4E0,2E0,1E0,1.3E1,2E0,5E0,2E0,7E0,1.3E1,2E0,1E0,1E0,1E1,3.2E1,1E1,1E0,1E0,9E0,2E0,1.2E1,9E0,4E0,1E0,2E1,2E0,2.2E1,5E0,3E0,1E1,3E0,6E0,2.6E1,3E0,3E0,1.2E1,6E0,2.7E1],"tree_param":{"num_deleted":"0","num_feature":"7","num_nodes":"91","size_leaf_vector":"1"}},{"base_weights":[2.3577426E-1,2.7811894E0,-4.289658E-1,1.671282E0,8.693333E0,1.6485804E-1,-5.0387967E-1,7.4942666E-1,3.6865218E0,1.5072499E1,5.020787E0,-2.7396446E-1,2.912954E0,-4.9266443E-1,-8.579121E-1,2.0905123E0,9.772262E-2,6.252498E0,2.2806494E0,2.3430052E0,5.2206216E0,2.0397024E0,3.2711E0,-7.21479E-1,6.554207E-1,2.4652832E0,5.595886E-1,-5.148851E-1,3.34199E-1,-3.6837935E-1,-1.5393227E-1,-4.8554453E-1,3.119645E0,8.9890563E-1,-5.005346E-1,2.9441767E0,2.6337774E0,3.1329742E-1,3.5748122E0,1.2457463E0,6.522714E-1,-5.513906E-1,-5.035377E-1,2.8450084E0,-1.2238541E0,-6.712771E-1,8.5043716E-1,-5.3000224E-1,-3.3380243E-1,2.6508937E0,-1.3976474E-1,-1.9579709E-1,1.5277004E-1,5.3954166E-1,1.397197E0,1.0683556E-2,5.1068175E-1,-2.0919298E-1,6.2796175E-1,1.2041767E0,2.6128522E-1,4.8897058E-1,-1.3588811E-1,1.9792768E0,5.714097E-1,-2.5157595E-1,-1.6535342E-2,2.2806503E-1,1.4333271E0,-4.746435E-1,-1.805617E-1,-4.4897223E-1,5.182812E-1,-1.8769613E-1,-1.5459093E-1,-1.6146262E-1,2.4705528E-1,1.1592897E0,-1.4839834E-1],"categories":[],"categories_nodes":[],"categories_segments":[],"categories_sizes":[],"default_left":[0,0,0,0,0,0,0,0,0,0,0,0,0,0,0,0,0,0,0,0,0,0,0,0,0,0,0,0,0,0,0,0,0,0,0,0,0,0,0,0,0,0,0,0,0,0,0,0,0,0,0,0,0,0,0,0,0,0,0,0,0,0,0,0,0,0,0,0,0,0,0,0,0,0,0,0,0,0,0],"id":9,"left_children":[1,3,5,7,9,11,13,15,17,19,21,23,25,27,29,31,33,35,37,-1,-1,-1,39,41,43,-1,45,47,49,-1,-1,51,53,55,57,59,-1,61,63,-1,-1,65,-1,67,69,71,-1,73,75,77,-1,-1,-1,-1,-1,-1,-1,-1,-1,-1,-1,-1,-1,-1,-1,-1,-1,-1,-1,-1,-1,-1,-1,-1,-1,-1,-1,-1,-1],"loss_changes":[1.3565165E3,1.0747516E3,2.8375954E1,2.5918137E2,5.3344653E2,8.762475E1,1.8207092E0,8.544682E1,1.444674E2,1.6355835E1,3.376367E1,2.6675415E1,1.2023949E2,1.0277481E1,1.4112864E0,8.635008E1,3.2563934E1,9.95423E1,7.526222E1,0E0,0E0,0E0,1.6058578E0,6.073675E0,8.989345E1,0E0,2.4306677E1,1.2903748E0,2.9038172E1,0E0,0E0,1.9947524E0,3.834932E1,2.0052084E1,2.1364592E1,1.4246658E1,0E0,1.3853439E1,7.830441E1,0E0,0E0,5.3698254E0,0E0,3.6661636E1,1.7219543E0,1.4464222E1,0E0,3.7075806E-1,1.0852016E1,1.717885E1,0E0,0E0,0E0,0E0,0E0,0E0,0E0,0E0,0E0,0E0,0E0,0E0,0E0,0E0,0E0,0E0,0E0,0E0,0E0,0E0,0E0,0E0,0E0,0E0,0E0,0E0,0E0,0E0,0E0],"parents":[2147483647,0,0,1,1,2,2,3,3,4,4,5,5,6,6,7,7,8,8,9,9,10,10,11,11,12,12,13,13,14,14,15,15,16,16,17,17,18,18,22,22,23,23,24,24,26,26,27,27,28,28,31,31,32,32,33,33,34,34,35,35,37,37,38,38,41,41,43,43,44,44,45,45,47,47,48,48,49,49],"right_children":[2,4,6,8,10,12,14,16,18,20,22,24,26,28,30,32,34,36,38,-1,-1,-1,40,42,44,-1,46,48,50,-1,-1,52,54,56,58,60,-1,62,64,-1,-1,66,-1,68,70,72,-1,74,76,78,-1,-1,-1,-1,-1,-1,-1,-1,-1,-1,-1,-1,-1,-1,-1,-1,-1,-1,-1,-1,-1,-1,-1,-1,-1,-1,-1,-1,-1],"split_conditions":[-8.714782E-1,1.2228286E0,-5.2482814E-1,3.0689597E-1,1E0,1.3287119E0,1.7160894E0,1E0,1E0,1.413935E0,3E0,4.6529034E-1,1E0,1.6480831E0,-1.7817812E-1,-9.9038833E-1,-1.2181282E0,-5.273417E-1,8.354511E-1,2.3430052E0,5.2206216E0,2.0397024E0,-1.2181282E0,1.3469157E0,2E0,2.4652832E0,5.726724E-1,7.915503E1,-1.7817812E-1,-3.6837935E-1,-1.5393227E-1,2.1207617E1,3.2146063E-1,-8.7761843E-1,2.3028131E-1,2.114413E1,2.6337774E0,1.657601E-1,2E0,1.2457463E0,6.522714E-1,2E0,-5.035377E-1,-5.033349E-1,9.077616E-1,2.1154484E1,8.5043716E-1,-1.7817812E-1,9.9384546E-1,3E0,-1.3976474E-1,-1.9579709E-1,1.5277004E-1,5.3954166E-1,1.397197E0,1.0683556E-2,5.1068175E-1,-2.0919298E-1,6.2796175E-1,1.2041767E0,2.6128522E-1,4.8897058E-1,-1.3588811E-1,1.9792768E0,5.714097E-1,-2.5157595E-1,-1.6535342E-2,2.2806503E-1,1.4333271E0,-4.746435E-1,-1.805617E-1,-4.4897223E-1,5.182812E-1,-1.8769613E-1,-1.5459093E-1,-1.6146262E-1,2.4705528E-1,1.1592897E0,-1.4839834E-1],"split_indices":[6,4,6,4,1,4,4,1,1,4,0,4,1,4,6,4,6,5,4,0,0,0,6,5,1,0,5,3,6,0,0,2,5,4,4,2,0,5,1,0,0,1,0,5,4,2,0,6,4,0,0,0,0,0,0,0,0,0,0,0,0,0,0,0,0,0,0,0,0,0,0,0,0,0,0,0,0,0,0],"split_type":[0,0,0,0,0,0,0,0,0,0,0,0,0,0,0,0,0,0,0,0,0,0,0,0,0,0,0,0,0,0,0,0,0,0,0,0,0,0,0,0,0,0,0,0,0,0,0,0,0,0,0,0,0,0,0,0,0,0,0,0,0,0,0,0,0,0,0,0,0,0,0,0,0,0,0,0,0,0,0],"sum_hessian":[8E2,1.65E2,6.35E2,1.4E2,2.5E1,7.1E1,5.64E2,9.7E1,4.3E1,8E0,1.7E1,6.2E1,9E0,5.49E2,1.5E1,3.1E1,6.6E1,1.4E1,2.9E1,3E0,5E0,7E0,1E1,4.2E1,2E1,2E0,7E0,5.35E2,1.4E1,6E0,9E0,9E0,2.2E1,2.8E1,3.8E1,7E0,7E0,1.2E1,1.7E1,4E0,6E0,3.7E1,5E0,9E0,1.1E1,5E0,2E0,4.92E2,4.3E1,3E0,1.1E1,8E0,1E0,1.3E1,9E0,1.4E1,1.4E1,3.6E1,2E0,4E0,3E0,4E0,8E0,5E0,1.2E1,2.3E1,1.4E1,5E0,4E0,6E0,5E0,4E0,1E0,6E1,4.32E2,3.7E1,6E0,2E0,1E0],"tree_param":{"num_deleted":"0","num_feature":"7","num_nodes":"79","size_leaf_vector":"1"}},{"base_weights":[1.9631523E-1,3.1757352E0,-1.3867693E-1,1.8215935E0,7.214788E0,1.0148584E0,-2.9444006E-1,3.383756E0,8.1355536E-1,1.214475E1,4.7618175E0,4.586383E-1,5.196267E0,1.6567229E-1,-3.5255274E-1,1.8081534E0,5.408784E0,-2.0226829E-1,1.2198528E0,1.8158295E0,4.865744E0,2.2393112E0,1.8584028E0,-1.4449216E-1,1.5808982E0,6.0129757E0,3.858868E-1,-1.8805233E-1,2.3775702E0,-3.4374794E-1,-6.3318294E-1,6.567346E-1,3.4258258E0,2.5576696E0,1.8795928E0,9.216748E-1,-1.1367526E0,-8.268535E-2,1.6579696E0,7.6003516E-1,1.0026423E0,3.8244277E-1,-9.15468E-1,2.9290135E0,8.59112E-1,2.1433823E0,5.23616E-1,6.29257E-1,-4.7967374E-1,1.972226E0,5.0668025E-1,-3.6089846E-1,2.9201436E-1,-9.1217744E-1,-1.1237056E-1,-4.8844308E-2,5.780285E-1,8.7572485E-2,1.4759423E0,-4.882622E-2,1.0556188E0,1.6075267E-2,5.315712E-1,-5.139899E-1,-8.280523E-2,-3.0095875E-1,5.7638947E-2,2.2950533E-1,7.6911443E-1,4.6455003E-2,4.0473405E-1,-1.2124898E-1,4.5080376E-1,-1.6300535E-1,-7.0833796E-1,3.7055087E-1,1.7714936E0,-1.9157076E-1,4.318831E-1,-2.085028E-1,7.86106E-1,3.337143E-1,-1.6153976E-1,-1.3750276E-1,6.8034977E-1,-1.1313036E-1,-7.782483E-2,6.3250446E-1,-1.01329446E-1,-3.901471E-1,-1.490263E-1],"categories":[],"categories_nodes":[],"categories_segments":[],"categories_sizes":[],"default_left":[0,0,0,0,0,0,0,0,0,0,0,0,0,0,0,0,0,0,0,0,0,0,0,0,0,0,0,0,0,0,0,0,0,0,0,0,0,0,0,0,0,0,0,0,0,0,0,0,0,0,0,0,0,0,0,0,0,0,0,0,0,0,0,0,0,0,0,0,0,0,0,0,0,0,0,0,0,0,0,0,0,0,0,0,0,0,0,0,0,0,0],"id":10,"left_children":[1,3,5,7,9,11,13,15,17,19,21,23,25,27,29,31,33,35,37,-1,-1,39,-1,41,43,45,-1,47,49,51,53,55,57,59,-1,61,63,65,67,-1,69,71,73,75,77,-1,-1,79,81,-1,83,85,87,89,-1,-1,-1,-1,-1,-1,-1,-1,-1,-1,-1,-1,-1,-1,-1,-1,-1,-1,-1,-1,-1,-1,-1,-1,-1,-1,-1,-1,-1,-1,-1,-1,-1,-1,-1,-1,-1],"loss_changes":[7.9990436E2,4.2988312E2,1.2984686E2,9.4879715E1,1.840299E2,1.9763417E2,1.7064007E1,6.679547E1,1.6343071E1,5.0756226E1,4.0344116E1,5.2347355E1,2.41987E1,5.6780106E1,1.1783981E0,2.5689419E1,8.395874E0,1.3651402E1,1.611568E1,0E0,0E0,6.122589E-3,0E0,2.1069073E1,2.375602E1,2.6164612E1,0E0,1.5317569E1,7.5181244E1,6.102394E0,8.127589E-1,1.0722198E1,2.665596E1,1.1030642E1,0E0,4.3335094E0,3.0008802E0,2.2165058E0,1.50232315E1,0E0,6.722963E-1,2.792405E1,1.0014109E1,3.807374E1,1.7437916E1,0E0,0E0,4.664578E1,4.998189E0,0E0,1.463586E1,7.8351593E-1,1.7870464E1,4.831748E-1,0E0,0E0,0E0,0E0,0E0,0E0,0E0,0E0,0E0,0E0,0E0,0E0,0E0,0E0,0E0,0E0,0E0,0E0,0E0,0E0,0E0,0E0,0E0,0E0,0E0,0E0,0E0,0E0,0E0,0E0,0E0,0E0,0E0,0E0,0E0,0E0,0E0],"parents":[2147483647,0,0,1,1,2,2,3,3,4,4,5,5,6,6,7,7,8,8,9,9,10,10,11,11,12,12,13,13,14,14,15,15,16,16,17,17,18,18,21,21,23,23,24,24,25,25,27,27,28,28,29,29,30,30,31,31,32,32,33,33,35,35,36,36,37,37,38,38,40,40,41,41,42,42,43,43,44,44,47,47,48,48,50,50,51,51,52,52,53,53],"right_children":[2,4,6,8,10,12,14,16,18,20,22,24,26,28,30,32,34,36,38,-1,-1,40,-1,42,44,46,-1,48,50,52,54,56,58,60,-1,62,64,66,68,-1,70,72,74,76,78,-1,-1,80,82,-1,84,86,88,90,-1,-1,-1,-1,-1,-1,-1,-1,-1,-1,-1,-1,-1,-1,-1,-1,-1,-1,-1,-1,-1,-1,-1,-1,-1,-1,-1,-1,-1,-1,-1,-1,-1,-1,-1,-1,-1],"split_conditions":[-1.2181282E0,1.0102015E0,-8.714782E-1,1E0,1E0,1.4432034E0,-5.2482814E-1,7.90959E1,2E0,1.413935E0,2.11066E1,2.3028131E-1,5E0,1.3287119E0,1.7160894E0,2.3924352E-1,-1.6528694E-2,7.906457E1,7.904357E1,1.8158295E0,4.865744E0,2.1091066E1,1.8584028E0,2E0,1E0,2.1184912E1,3.858868E-1,1E0,1E0,1.6480831E0,-1.7817812E-1,-2.6814446E-1,-4.0501785E-1,1E0,1.8795928E0,-8.90531E-1,2E0,3E0,1.657601E-1,7.6003516E-1,5E0,-4.747458E-1,-2.1452107E-3,7.90959E1,-7.9855925E-1,2.1433823E0,5.23616E-1,1.3558902E-1,2.1044205E1,1.972226E0,5.726724E-1,1.2638812E0,-1.7817812E-1,7.906109E1,-1.1237056E-1,-4.8844308E-2,5.780285E-1,8.7572485E-2,1.4759423E0,-4.882622E-2,1.0556188E0,1.6075267E-2,5.315712E-1,-5.139899E-1,-8.280523E-2,-3.0095875E-1,5.7638947E-2,2.2950533E-1,7.6911443E-1,4.6455003E-2,4.0473405E-1,-1.2124898E-1,4.5080376E-1,-1.6300535E-1,-7.0833796E-1,3.7055087E-1,1.7714936E0,-1.9157076E-1,4.318831E-1,-2.085028E-1,7.86106E-1,3.337143E-1,-1.6153976E-1,-1.3750276E-1,6.8034977E-1,-1.1313036E-1,-7.782483E-2,6.3250446E-1,-1.01329446E-1,-3.901471E-1,-1.490263E-1],"split_indices":[6,4,6,1,1,4,6,3,0,4,2,4,0,4,4,5,5,3,3,0,0,2,0,1,1,2,0,1,1,4,6,4,4,0,0,4,1,0,5,0,0,4,4,3,5,0,0,4,2,0,5,5,6,3,0,0,0,0,0,0,0,0,0,0,0,0,0,0,0,0,0,0,0,0,0,0,0,0,0,0,0,0,0,0,0,0,0,0,0,0,0],"split_type":[0,0,0,0,0,0,0,0,0,0,0,0,0,0,0,0,0,0,0,0,0,0,0,0,0,0,0,0,0,0,0,0,0,0,0,0,0,0,0,0,0,0,0,0,0,0,0,0,0,0,0,0,0,0,0,0,0,0,0,0,0,0,0,0,0,0,0,0,0,0,0,0,0,0,0,0,0,0,0,0,0,0,0,0,0,0,0,0,0,0,0],"sum_hessian":[8E2,8E1,7.2E2,6.1E1,1.9E1,8.5E1,6.35E2,2.3E1,3.8E1,5E0,1.4E1,7.6E1,9E0,7.1E1,5.64E2,1.4E1,9E0,1.1E1,2.7E1,3E0,2E0,6E0,8E0,5E1,2.6E1,7E0,2E0,6.2E1,9E0,5.49E2,1.5E1,9E0,5E0,3E0,6E0,5E0,6E0,7E0,2E1,4E0,2E0,3E1,2E1,8E0,1.8E1,5E0,2E0,1.6E1,4.6E1,2E0,7E0,5.35E2,1.4E1,6E0,9E0,6E0,3E0,2E0,3E0,1E0,2E0,3E0,2E0,3E0,3E0,1E0,6E0,1.1E1,9E0,1E0,1E0,1.8E1,1.2E1,1.7E1,3E0,6E0,2E0,5E0,1.3E1,1E1,6E0,1E0,4.5E1,5E0,2E0,4.59E2,7.6E1,3E0,1.1E1,2E0,4E0],"tree_param":{"num_deleted":"0","num_feature":"7","num_nodes":"91","size_leaf_vector":"1"}},{"base_weights":[1.6648863E-1,2.4135885E0,-8.619041E-2,1.7071638E0,7.2584887E0,7.6730126E-1,-2.0146415E-1,3.8198513E-1,2.4937823E0,3.9963925E0,1.11525345E1,2.4725978E-1,3.424139E0,1.6131572E-1,-2.4733792E-1,-3.722323E-1,7.588372E-1,3.459741E0,1.8415383E0,4.0186006E-1,1.4373689E0,3.8925967E0,8.526261E-1,1.3188032E0,-2.4083352E-1,1.7416272E0,2.246932E0,-4.5558608E-1,9.9191445E-1,-2.3769478E-1,-4.858224E-1,-2.755346E-1,-1.2087214E-1,1.1147192E0,-1.9802682E-1,1.5832716E0,4.339336E0,7.923234E-1,3.0719316E0,5.752917E-1,3.8803864E0,-4.1493186E-1,7.468116E-1,9.2817265E-1,1.3209583E0,-3.6660853E-1,-4.4702744E-1,-3.0605003E-1,2.2278843E0,-2.5298518E-1,6.056404E-1,-8.102839E-1,-7.971427E-2,-1.2862201E-1,1.605463E-1,3.9361084E-1,-2.175602E-1,-1.1837008E-1,1.1770106E-1,-5.071259E-3,6.6801685E-1,4.7607955E-1,1.4323968E0,6.331043E-1,6.73329E-2,6.298907E-1,1.2623036E0,-9.077762E-2,6.370388E-1,5.2299803E-1,1.4171952E0,1.1440286E-2,-3.214438E-1,-2.89608E-1,4.4352868E-1,8.015213E-2,4.3561804E-1,-1.5085399E-1,4.4438297E-1,-1.7080687E-1,8.527713E-3,1.2070917E0,1.1523462E-1,-7.914238E-2,-3.7791483E-2,8.009309E-1,-7.323392E-2,-3.4459537E-1,-1.1325998E-1],"categories":[],"categories_nodes":[],"categories_segments":[],"categories_sizes":[],"default_left":[0,0,0,0,0,0,0,0,0,0,0,0,0,0,0,0,0,0,0,0,0,0,0,0,0,0,0,0,0,0,0,0,0,0,0,0,0,0,0,0,0,0,0,0,0,0,0,0,0,0,0,0,0,0,0,0,0,0,0,0,0,0,0,0,0,0,0,0,0,0,0,0,0,0,0,0,0,0,0,0,0,0,0,0,0,0,0,0,0],"id":11,"left_children":[1,3,5,7,9,11,13,15,17,19,21,23,25,27,29,31,33,35,37,-1,-1,-1,-1,39,41,-1,43,45,47,49,51,-1,53,55,57,59,61,63,65,67,69,71,73,-1,75,77,-1,79,81,83,85,87,-1,-1,-1,-1,-1,-1,-1,-1,-1,-1,-1,-1,-1,-1,-1,-1,-1,-1,-1,-1,-1,-1,-1,-1,-1,-1,-1,-1,-1,-1,-1,-1,-1,-1,-1,-1,-1],"loss_changes":[4.5501187E2,2.6483575E2,7.1090294E1,7.410094E1,8.245758E1,1.17976616E2,1.0624264E1,8.240859E0,2.198056E1,8.3643875E0,2.3715698E1,3.8497574E1,2.6201324E1,3.7344547E1,1.183876E0,1.2619553E0,6.6908255E0,2.1188736E1,3.50035E1,0E0,0E0,0E0,0E0,4.1572678E1,9.079193E0,0E0,4.5401382E0,3.319726E0,5.0413433E1,7.1809616E0,1.2844453E0,0E0,1.8451979E0,6.034153E0,8.509839E-1,7.245083E0,5.6028595E0,1.225051E1,5.5210724E0,2.646571E1,7.786331E-1,1.3129076E1,1.144845E1,0E0,5.791187E-1,1.0814945E1,0E0,1.4252969E0,5.142974E1,7.035713E-1,1.8191736E1,7.377753E-1,0E0,0E0,0E0,0E0,0E0,0E0,0E0,0E0,0E0,0E0,0E0,0E0,0E0,0E0,0E0,0E0,0E0,0E0,0E0,0E0,0E0,0E0,0E0,0E0,0E0,0E0,0E0,0E0,0E0,0E0,0E0,0E0,0E0,0E0,0E0,0E0,0E0],"parents":[2147483647,0,0,1,1,2,2,3,3,4,4,5,5,6,6,7,7,8,8,9,9,10,10,11,11,12,12,13,13,14,14,15,15,16,16,17,17,18,18,23,23,24,24,26,26,27,27,28,28,29,29,30,30,32,32,33,33,34,34,35,35,36,36,37,37,38,38,39,39,40,40,41,41,42,42,44,44,45,45,47,47,48,48,49,49,50,50,51,51],"right_children":[2,4,6,8,10,12,14,16,18,20,22,24,26,28,30,32,34,36,38,-1,-1,-1,-1,40,42,-1,44,46,48,50,52,-1,54,56,58,60,62,64,66,68,70,72,74,-1,76,78,-1,80,82,84,86,88,-1,-1,-1,-1,-1,-1,-1,-1,-1,-1,-1,-1,-1,-1,-1,-1,-1,-1,-1,-1,-1,-1,-1,-1,-1,-1,-1,-1,-1,-1,-1,-1,-1,-1,-1,-1,-1],"split_conditions":[-1.2181282E0,1.3803622E0,-8.714782E-1,-4.0501785E-1,2.116337E1,1.2228286E0,-5.2482814E-1,-1.2400316E0,1E0,2.1091066E1,1E0,1E0,1E0,7.908994E1,1.67563E0,7.901501E1,2E0,-1.6528694E-2,8.354511E-1,4.0186006E-1,1.4373689E0,3.8925967E0,8.526261E-1,4.35161E-1,2.1202719E1,1.7416272E0,2E0,1.6274263E0,1.3558902E-1,1.6480831E0,-1.7817812E-1,-2.755346E-1,1.715838E-2,-4.4547728E-1,2.1155743E1,-5.6378067E-2,7.904917E1,2.1121386E1,2.1167587E1,2.1165173E1,2.1121906E1,2.1152212E1,7.905779E1,9.2817265E-1,1.3941356E0,1.5121675E0,-4.4702744E-1,2E0,7.910946E1,7.915503E1,-1.7817812E-1,7.906109E1,-7.971427E-2,-1.2862201E-1,1.605463E-1,3.9361084E-1,-2.175602E-1,-1.1837008E-1,1.1770106E-1,-5.071259E-3,6.6801685E-1,4.7607955E-1,1.4323968E0,6.331043E-1,6.73329E-2,6.298907E-1,1.2623036E0,-9.077762E-2,6.370388E-1,5.2299803E-1,1.4171952E0,1.1440286E-2,-3.214438E-1,-2.89608E-1,4.4352868E-1,8.015213E-2,4.3561804E-1,-1.5085399E-1,4.4438297E-1,-1.7080687E-1,8.527713E-3,1.2070917E0,1.1523462E-1,-7.914238E-2,-3.7791483E-2,8.009309E-1,-7.323392E-2,-3.4459537E-1,-1.1325998E-1],"split_indices":[6,4,6,4,2,4,6,4,1,2,1,1,1,3,4,3,1,5,4,0,0,0,0,4,2,0,0,5,4,4,6,0,5,4,2,4,3,2,2,2,2,2,3,0,4,5,0,1,3,3,6,3,0,0,0,0,0,0,0,0,0,0,0,0,0,0,0,0,0,0,0,0,0,0,0,0,0,0,0,0,0,0,0,0,0,0,0,0,0],"split_type":[0,0,0,0,0,0,0,0,0,0,0,0,0,0,0,0,0,0,0,0,0,0,0,0,0,0,0,0,0,0,0,0,0,0,0,0,0,0,0,0,0,0,0,0,0,0,0,0,0,0,0,0,0,0,0,0,0,0,0,0,0,0,0,0,0,0,0,0,0,0,0,0,0,0,0,0,0,0,0,0,0,0,0,0,0,0,0,0,0],"sum_hessian":[8E2,8E1,7.2E2,7.1E1,9E0,8.5E1,6.35E2,2.7E1,4.4E1,6E0,3E0,7.2E1,1.3E1,7.1E1,5.64E2,9E0,1.8E1,1.6E1,2.8E1,2E0,4E0,2E0,1E0,2.2E1,5E1,3E0,1E1,4.1E1,3E1,5.44E2,2E1,2E0,7E0,1.3E1,5E0,6E0,1E1,1.6E1,1.2E1,1.8E1,4E0,4.3E1,7E0,4E0,6E0,3.9E1,2E0,1.5E1,1.5E1,5.35E2,9E0,7E0,1.3E1,5E0,2E0,1.2E1,1E0,4E0,1E0,2E0,4E0,2E0,8E0,4E0,1.2E1,8E0,4E0,1.2E1,6E0,2E0,2E0,2.6E1,1.7E1,2E0,5E0,1E0,5E0,3.7E1,2E0,8E0,7E0,7E0,8E0,4.92E2,4.3E1,2E0,7E0,3E0,4E0],"tree_param":{"num_deleted":"0","num_feature":"7","num_nodes":"89","size_leaf_vector":"1"}},{"base_weights":[1.3935854E-1,1.8337132E0,-5.1185276E-2,1.2657899E0,5.73939E0,6.012501E-1,-1.3932718E-1,2.6495272E-1,1.8604044E0,3.0602252E0,8.99308E0,2.050048E-1,2.6244397E0,1.2690082E-1,-1.73007E-1,8.588763E-1,-1.5560532E-2,2.2494876E0,1.0145981E0,3.214882E-1,1.0924017E0,3.114078E0,7.2473145E-1,6.721497E-1,-4.8697457E-1,4.4992065E0,1.704121E0,-3.348754E-1,8.2315093E-1,-1.1800694E-1,-1.9990383E-1,1.287991E-1,6.8282926E-1,-1.1524E-1,2.817524E-1,7.859497E-1,2.6607404E0,4.078678E-1,1.9578375E0,-2.2329135E-1,1.3006586E0,-1.4352739E-1,-1.0671536E0,3.4984133E-1,1.5664552E0,7.054118E-1,9.983526E-1,-1.1704188E-1,-6.153384E-1,-2.2437747E-1,1.9615299E0,2.5362056E-1,-1.8190485E-1,-1.898712E-1,-4.017808E-1,-4.27892E-2,2.6360667E-1,7.504732E-3,-1.9423594E-1,4.0996286E-1,-1.9116592E-1,5.670718E-1,1.1607451E0,4.2305947E-3,3.2802975E-1,9.275696E-1,1.8534966E-1,1.3207124E-1,-1.6901997E-1,6.7945635E-1,2.4786772E-1,-1.8031663E-1,2.3760976E-1,-9.167169E-2,-5.75981E-1,6.812897E-2,3.2671377E-1,-1.20455176E-1,4.6642184E-2,6.361852E-2,-3.0405834E-1,-1.2525839E-1,6.289189E-3,1.2463127E0,8.450544E-2,-5.785732E-2,5.768552E-1,-5.1674794E-2,-6.505182E-2,-5.841172E-2,1.4518418E-2,-1.873292E-1,-5.504485E-2],"categories":[],"categories_nodes":[],"categories_segments":[],"categories_sizes":[],"default_left":[0,0,0,0,0,0,0,0,0,0,0,0,0,0,0,0,0,0,0,0,0,0,0,0,0,0,0,0,0,0,0,0,0,0,0,0,0,0,0,0,0,0,0,0,0,0,0,0,0,0,0,0,0,0,0,0,0,0,0,0,0,0,0,0,0,0,0,0,0,0,0,0,0,0,0,0,0,0,0,0,0,0,0,0,0,0,0,0,0,0,0,0,0],"id":12,"left_children":[1,3,5,7,9,11,13,15,17,19,21,23,25,27,29,31,33,35,37,-1,-1,-1,-1,39,41,43,45,47,49,51,53,55,-1,57,-1,59,61,63,65,67,69,71,73,-1,-1,-1,75,77,79,81,83,85,87,89,91,-1,-1,-1,-1,-1,-1,-1,-1,-1,-1,-1,-1,-1,-1,-1,-1,-1,-1,-1,-1,-1,-1,-1,-1,-1,-1,-1,-1,-1,-1,-1,-1,-1,-1,-1,-1,-1,-1],"loss_changes":[2.5869577E2,1.7240323E2,4.154624E1,4.235515E1,5.965088E1,6.84064E1,5.724654E0,4.678261E0,1.2526688E1,4.18705E0,1.1419312E1,2.392491E1,1.6488174E1,2.3424498E1,8.1222916E-1,9.01897E0,2.0115805E0,1.5965317E1,8.358131E0,0E0,0E0,0E0,0E0,2.5053303E1,5.82466E0,3.5410385E0,2.6774082E0,2.6161265E0,3.5022167E1,4.5104246E0,6.892996E-1,1.5501246E0,0E0,1.4344697E0,0E0,7.481047E0,1.4101242E1,2.954051E0,7.207615E0,4.535793E0,1.0022324E1,9.036951E0,6.55742E0,0E0,0E0,0E0,2.4231529E-1,2.0780506E0,6.474708E0,7.6695794E-1,5.040076E1,2.1238537E1,1.6956806E-2,4.2641163E-1,7.1169615E-1,0E0,0E0,0E0,0E0,0E0,0E0,0E0,0E0,0E0,0E0,0E0,0E0,0E0,0E0,0E0,0E0,0E0,0E0,0E0,0E0,0E0,0E0,0E0,0E0,0E0,0E0,0E0,0E0,0E0,0E0,0E0,0E0,0E0,0E0,0E0,0E0,0E0,0E0],"parents":[2147483647,0,0,1,1,2,2,3,3,4,4,5,5,6,6,7,7,8,8,9,9,10,10,11,11,12,12,13,13,14,14,15,15,16,16,17,17,18,18,23,23,24,24,25,25,26,26,27,27,28,28,29,29,30,30,31,31,33,33,35,35,36,36,37,37,38,38,39,39,40,40,41,41,42,42,46,46,47,47,48,48,49,49,50,50,51,51,52,52,53,53,54,54],"right_children":[2,4,6,8,10,12,14,16,18,20,22,24,26,28,30,32,34,36,38,-1,-1,-1,-1,40,42,44,46,48,50,52,54,56,-1,58,-1,60,62,64,66,68,70,72,74,-1,-1,-1,76,78,80,82,84,86,88,90,92,-1,-1,-1,-1,-1,-1,-1,-1,-1,-1,-1,-1,-1,-1,-1,-1,-1,-1,-1,-1,-1,-1,-1,-1,-1,-1,-1,-1,-1,-1,-1,-1,-1,-1,-1,-1,-1,-1],"split_conditions":[-1.2181282E0,1.3803622E0,-8.714782E-1,-4.0501785E-1,2.116337E1,1.2228286E0,-5.2482814E-1,1E0,2E0,2.1091066E1,1E0,2E0,1E0,7.9090744E1,1E0,7.90959E1,7.916059E1,-5.757857E-1,1.0102015E0,3.214882E-1,1.0924017E0,3.114078E0,7.2473145E-1,-4.747458E-1,7.9123314E1,1E0,2E0,3.5252044E-1,1.3558902E-1,-1.7817812E-1,1.67563E0,8.5757124E-1,6.8282926E-1,7.915503E1,2.817524E-1,-9.1941106E-1,4E0,9.8147774E-1,7.906457E1,1E0,2.114413E1,7.911192E1,-3.77471E-1,3.4984133E-1,1.5664552E0,7.054118E-1,1.3941356E0,-5.780465E-1,2E0,2E0,7.910946E1,8.8107556E-1,1.1399747E0,1.6480831E0,-1.7817812E-1,-4.27892E-2,2.6360667E-1,7.504732E-3,-1.9423594E-1,4.0996286E-1,-1.9116592E-1,5.670718E-1,1.1607451E0,4.2305947E-3,3.2802975E-1,9.275696E-1,1.8534966E-1,1.3207124E-1,-1.6901997E-1,6.7945635E-1,2.4786772E-1,-1.8031663E-1,2.3760976E-1,-9.167169E-2,-5.75981E-1,6.812897E-2,3.2671377E-1,-1.20455176E-1,4.6642184E-2,6.361852E-2,-3.0405834E-1,-1.2525839E-1,6.289189E-3,1.2463127E0,8.450544E-2,-5.785732E-2,5.768552E-1,-5.1674794E-2,-6.505182E-2,-5.841172E-2,1.4518418E-2,-1.873292E-1,-5.504485E-2],"split_indices":[6,4,6,4,2,4,6,1,1,2,1,1,1,3,1,3,3,5,4,0,0,0,0,4,3,0,0,4,4,6,4,5,0,3,0,5,0,5,3,0,2,3,4,0,0,0,4,4,1,1,3,4,5,4,6,0,0,0,0,0,0,0,0,0,0,0,0,0,0,0,0,0,0,0,0,0,0,0,0,0,0,0,0,0,0,0,0,0,0,0,0,0,0],"split_type":[0,0,0,0,0,0,0,0,0,0,0,0,0,0,0,0,0,0,0,0,0,0,0,0,0,0,0,0,0,0,0,0,0,0,0,0,0,0,0,0,0,0,0,0,0,0,0,0,0,0,0,0,0,0,0,0,0,0,0,0,0,0,0,0,0,0,0,0,0,0,0,0,0,0,0,0,0,0,0,0,0,0,0,0,0,0,0,0,0,0,0,0,0],"sum_hessian":[8E2,8E1,7.2E2,7.1E1,9E0,8.5E1,6.35E2,2.7E1,4.4E1,6E0,3E0,7.2E1,1.3E1,7.1E1,5.64E2,8E0,1.9E1,2.9E1,1.5E1,2E0,4E0,2E0,1E0,4.3E1,2.9E1,3E0,1E1,4.3E1,2.8E1,1.87E2,3.77E2,6E0,2E0,1.8E1,1E0,7E0,2.2E1,1E1,5E0,1.8E1,2.5E1,1.9E1,1E1,1E0,2E0,4E0,6E0,2.5E1,1.8E1,1.5E1,1.3E1,2.7E1,1.6E2,3.61E2,1.6E1,5E0,1E0,1.5E1,3E0,5E0,2E0,1.5E1,7E0,7E0,3E0,2E0,3E0,6E0,1.2E1,7E0,1.8E1,1.3E1,6E0,6E0,4E0,1E0,5E0,1.2E1,1.3E1,6E0,1.2E1,8E0,7E0,5E0,8E0,2.2E1,5E0,1.3E2,3E1,3.54E2,7E0,7E0,9E0],"tree_param":{"num_deleted":"0","num_feature":"7","num_nodes":"93","size_leaf_vector":"1"}},{"base_weights":[1.14970796E-1,1.4026502E0,-2.9851684E-2,7.106813E-1,3.4776216E0,4.5920703E-1,-9.593533E-2,1.4556674E0,2.3400572E-1,6.003919E0,2.235261E0,1.9596297E-1,2.4402657E0,1.0129708E-1,-1.2089957E-1,9.2151016E-1,9.903489E-1,1.1547816E0,3.1598546E-2,8.3331645E-1,2.491263E0,9.6199906E-1,2.9772136E0,-4.6902083E-2,8.904735E-1,3.628521E0,1.4126532E0,-7.325891E-2,1.19087E0,-1.14964925E-1,-2.6916072E-1,3.157329E-1,1.7907095E0,2.1489234E0,-1.2805557E-1,-5.7046115E-1,4.5146042E-1,3.4846392E-1,3.0875397E-1,3.3561444E0,3.3019108E-1,-2.5794578E-1,5.752862E-1,2.5607421E0,3.128599E-1,2.9736558E-1,1.2531648E0,1.5781606E0,6.2941365E-2,-1.2529114E-1,1.0091496E0,-2.6242527E-1,1.0309259E0,-1.2501797E-1,4.3537492E-1,-4.6051764E-1,-1.4058813E-1,2.2749059E-1,-4.2367935E-1,3.0371858E-2,7.010979E-1,1.7516184E-1,7.427948E-1,-2.296938E-1,1.0190697E-1,-2.8100136E-1,2.2179224E-2,3.8787916E-2,5.12342E-1,-8.279915E-2,2.2173844E-1,1.0760697E0,2.957428E-1,2.960451E-4,-2.4386156E-1,-1.4209023E-1,3.4413293E-1,2.8250733E-1,9.978638E-1,-1.3725339E-1,2.1138617E-1,2.1213228E-1,5.510731E-1,-2.151654E-2,-3.411174E-1,5.854826E-1,-1.313653E-1,-2.7759764E-1,2.78965E-1,-3.6004644E-2,-7.86934E-2,5.816075E-1,-5.483722E-2,-2.2491236E-1,-4.1118577E-2,-6.376795E-2,-3.0490763E-2],"categories":[],"categories_nodes":[],"categories_segments":[],"categories_sizes":[],"default_left":[0,0,0,0,0,0,0,0,0,0,0,0,0,0,0,0,0,0,0,0,0,0,0,0,0,0,0,0,0,0,0,0,0,0,0,0,0,0,0,0,0,0,0,0,0,0,0,0,0,0,0,0,0,0,0,0,0,0,0,0,0,0,0,0,0,0,0,0,0,0,0,0,0,0,0,0,0,0,0,0,0,0,0,0,0,0,0,0,0,0,0,0,0,0,0,0,0],"id":13,"left_children":[1,3,5,7,9,11,13,15,17,19,21,23,25,27,29,31,-1,33,35,-1,-1,37,39,41,43,45,47,49,51,53,55,57,59,61,63,65,67,-1,69,71,-1,73,75,77,79,-1,-1,81,-1,83,85,87,-1,89,91,93,95,-1,-1,-1,-1,-1,-1,-1,-1,-1,-1,-1,-1,-1,-1,-1,-1,-1,-1,-1,-1,-1,-1,-1,-1,-1,-1,-1,-1,-1,-1,-1,-1,-1,-1,-1,-1,-1,-1,-1,-1],"loss_changes":[1.494163E2,1.13829605E2,2.3345896E1,2.16766E1,4.935112E1,4.437096E1,3.1437573E0,2.061678E1,7.232004E0,2.1460358E1,1.1306419E1,1.3029533E1,7.08482E0,1.3781029E1,4.6618652E-1,9.965439E0,0E0,9.202437E0,8.599344E0,0E0,0E0,5.538411E-1,2.7059402E0,7.7643094E0,1.8494244E1,1.6477623E0,1.0624571E0,3.674606E0,3.353627E1,3.0696921E0,4.5192492E-1,1.1012777E1,7.146837E0,6.017971E-1,1.4530023E0,3.3730073E0,7.8742666E0,0E0,9.589826E-1,2.9276276E-1,0E0,6.3230944E0,9.54027E0,3.064415E0,5.1511893E0,0E0,0E0,5.3414345E-2,0E0,3.2246299E0,4.9458904E0,6.393115E0,0E0,3.3664894E-1,9.647362E0,6.455653E-1,1.7644733E-2,0E0,0E0,0E0,0E0,0E0,0E0,0E0,0E0,0E0,0E0,0E0,0E0,0E0,0E0,0E0,0E0,0E0,0E0,0E0,0E0,0E0,0E0,0E0,0E0,0E0,0E0,0E0,0E0,0E0,0E0,0E0,0E0,0E0,0E0,0E0,0E0,0E0,0E0,0E0,0E0],"parents":[2147483647,0,0,1,1,2,2,3,3,4,4,5,5,6,6,7,7,8,8,9,9,10,10,11,11,12,12,13,13,14,14,15,15,17,17,18,18,21,21,22,22,23,23,24,24,25,25,26,26,27,27,28,28,29,29,30,30,31,31,32,32,33,33,34,34,35,35,36,36,38,38,39,39,41,41,42,42,43,43,44,44,47,47,49,49,50,50,51,51,53,53,54,54,55,55,56,56],"right_children":[2,4,6,8,10,12,14,16,18,20,22,24,26,28,30,32,-1,34,36,-1,-1,38,40,42,44,46,48,50,52,54,56,58,60,62,64,66,68,-1,70,72,-1,74,76,78,80,-1,-1,82,-1,84,86,88,-1,90,92,94,96,-1,-1,-1,-1,-1,-1,-1,-1,-1,-1,-1,-1,-1,-1,-1,-1,-1,-1,-1,-1,-1,-1,-1,-1,-1,-1,-1,-1,-1,-1,-1,-1,-1,-1,-1,-1,-1,-1,-1,-1],"split_conditions":[-1.2181282E0,1.0102015E0,-8.714782E-1,1E0,1E0,1.4432034E0,-5.2482814E-1,7.912711E1,2.1121386E1,1.413935E0,2.11066E1,4.6529034E-1,1E0,1.3287119E0,1.67563E0,2.3924352E-1,9.903489E-1,3E0,3E0,8.3331645E-1,2.491263E0,2.1091066E1,7.910352E1,2.1178965E1,1E0,1E0,2E0,1.6925201E0,2.1154484E1,1.6480831E0,-1.7817812E-1,-3.1764725E-1,-4.0501785E-1,-1.462128E0,2.108357E1,1.0834855E0,1.0023869E0,3.4846392E-1,5E0,4E0,3.3019108E-1,-4.346548E-2,-5.849332E-1,2.1121906E1,-7.9855925E-1,2.9736558E-1,1.2531648E0,7.907812E1,6.2941365E-2,1.6274263E0,1E0,5.726724E-1,1.0309259E0,1.5516691E0,-1.7817812E-1,7.906109E1,1E0,2.2749059E-1,-4.2367935E-1,3.0371858E-2,7.010979E-1,1.7516184E-1,7.427948E-1,-2.296938E-1,1.0190697E-1,-2.8100136E-1,2.2179224E-2,3.8787916E-2,5.12342E-1,-8.279915E-2,2.2173844E-1,1.0760697E0,2.957428E-1,2.960451E-4,-2.4386156E-1,-1.4209023E-1,3.4413293E-1,2.8250733E-1,9.978638E-1,-1.3725339E-1,2.1138617E-1,2.1213228E-1,5.510731E-1,-2.151654E-2,-3.411174E-1,5.854826E-1,-1.313653E-1,-2.7759764E-1,2.78965E-1,-3.6004644E-2,-7.86934E-2,5.816075E-1,-5.483722E-2,-2.2491236E-1,-4.1118577E-2,-6.376795E-2,-3.0490763E-2],"split_indices":[6,4,6,1,1,4,6,3,2,4,2,4,1,4,4,5,0,0,0,0,0,2,3,2,1,0,1,5,2,4,6,5,4,4,2,5,5,0,0,0,0,4,4,2,5,0,0,3,0,5,1,5,0,4,6,3,0,0,0,0,0,0,0,0,0,0,0,0,0,0,0,0,0,0,0,0,0,0,0,0,0,0,0,0,0,0,0,0,0,0,0,0,0,0,0,0,0],"split_type":[0,0,0,0,0,0,0,0,0,0,0,0,0,0,0,0,0,0,0,0,0,0,0,0,0,0,0,0,0,0,0,0,0,0,0,0,0,0,0,0,0,0,0,0,0,0,0,0,0,0,0,0,0,0,0,0,0,0,0,0,0,0,0,0,0,0,0,0,0,0,0,0,0,0,0,0,0,0,0,0,0,0,0,0,0,0,0,0,0,0,0,0,0,0,0,0,0],"sum_hessian":[8E2,8E1,7.2E2,6.1E1,1.9E1,8.5E1,6.35E2,2.3E1,3.8E1,5E0,1.4E1,7.6E1,9E0,7.1E1,5.64E2,1.9E1,4E0,6E0,3.2E1,3E0,2E0,6E0,8E0,5.7E1,1.9E1,3E0,6E0,6.2E1,9E0,5.44E2,2E1,1.2E1,7E0,3E0,3E0,1.3E1,1.9E1,4E0,2E0,6E0,2E0,4.3E1,1.4E1,4E0,1.5E1,1E0,2E0,5E0,1E0,6E1,2E0,6E0,3E0,5.35E2,9E0,7E0,1.3E1,1E1,2E0,2E0,5E0,1E0,2E0,1E0,2E0,8E0,5E0,1.6E1,3E0,1E0,1E0,5E0,1E0,3E1,1.3E1,5E0,9E0,2E0,2E0,5E0,1E1,2E0,3E0,5.8E1,2E0,1E0,1E0,4E0,2E0,5.18E2,1.7E1,2E0,7E0,3E0,4E0,3E0,1E1],"tree_param":{"num_deleted":"0","num_feature":"7","num_nodes":"97","size_leaf_vector":"1"}},{"base_weights":[9.6693456E-2,1.0821282E0,-1.4148305E-2,7.8347826E-1,4.12736E0,3.6434802E-1,-6.530638E-2,2.9370943E-1,1.3979201E0,1.9930116E0,1.7922806E0,1.5422574E-1,1.9458549E0,2.0697277E-2,-1.06261015E-1,-2.563405E-1,4.0118447E-1,1.7358925E0,6.618106E-1,6.259037E-1,9.240303E-2,7.121132E-1,-8.187676E-2,2.9276009E0,1.106878E0,6.7917144E-1,-4.596074E-2,-9.8761216E-2,-4.469447E-1,9.1777724E-1,8.772E-2,9.664656E-1,1.3317595E0,7.397461E-2,1.2373174E0,3.2292828E-1,2.048593E0,1.9839758E-1,-4.0212113E-1,2.527611E-1,1.0025331E0,3.6957398E-1,5.3499985E-2,-2.606353E-1,1.7523607E0,2.1025588E-1,-9.0234675E-2,-7.828974E-2,-1.842298E-1,-2.6050073E-1,-2.7457982E-2,1.1052542E-1,7.009232E-1,-1.681501E-1,4.9527764E-2,-5.463083E-3,5.86867E-1,-1.7492181E-1,8.419838E-2,5.996025E-1,1.0709096E-1,-6.566459E-2,3.849044E-1,2.7667466E-1,9.830956E-1,-9.8258734E-2,2.2384788E-1,-2.5901222E-1,6.2386513E-2,-1.2571156E-1,3.6398992E-2,5.9705403E-2,7.487587E-1,-3.0923016E-2,4.1289645E-1,-2.5901493E-2,-5.2950367E-2,-2.5679978E-2,8.544818E-2,-1.4678156E-1,-4.4628806E-2],"categories":[],"categories_nodes":[],"categories_segments":[],"categories_sizes":[],"default_left":[0,0,0,0,0,0,0,0,0,0,0,0,0,0,0,0,0,0,0,0,0,0,0,0,0,0,0,0,0,0,0,0,0,0,0,0,0,0,0,0,0,0,0,0,0,0,0,0,0,0,0,0,0,0,0,0,0,0,0,0,0,0,0,0,0,0,0,0,0,0,0,0,0,0,0,0,0,0,0,0,0],"id":14,"left_children":[1,3,5,7,9,11,13,15,17,-1,19,21,23,25,27,-1,29,31,33,-1,-1,35,37,39,41,43,45,47,49,51,53,-1,55,57,59,61,63,65,67,-1,-1,-1,-1,69,71,73,75,77,79,-1,-1,-1,-1,-1,-1,-1,-1,-1,-1,-1,-1,-1,-1,-1,-1,-1,-1,-1,-1,-1,-1,-1,-1,-1,-1,-1,-1,-1,-1,-1,-1],"loss_changes":[8.750639E1,7.043242E1,1.398462E1,2.2159496E1,2.9218826E1,2.8278553E1,2.2423491E0,5.6490183E0,7.0610733E0,0E0,1.5397453E0,1.0200639E1,4.9961205E0,9.073087E0,1.0570893E0,0E0,6.396831E0,8.918564E0,3.968113E0,0E0,0E0,1.1301621E1,5.0163755E0,6.387634E-1,5.9301376E-1,1.9619946E1,2.1515915E0,7.256861E-1,1.2684541E0,1.0829313E1,1.39655E0,0E0,1.6052761E1,1.1142662E0,3.3080883E0,1.0164336E1,3.8957672E0,8.886868E0,7.4959264E0,0E0,0E0,0E0,0E0,7.163916E-1,9.897495E0,1.0372125E1,3.8877606E-2,9.3485713E-1,8.035505E-1,0E0,0E0,0E0,0E0,0E0,0E0,0E0,0E0,0E0,0E0,0E0,0E0,0E0,0E0,0E0,0E0,0E0,0E0,0E0,0E0,0E0,0E0,0E0,0E0,0E0,0E0,0E0,0E0,0E0,0E0,0E0,0E0],"parents":[2147483647,0,0,1,1,2,2,3,3,4,4,5,5,6,6,7,7,8,8,10,10,11,11,12,12,13,13,14,14,16,16,17,17,18,18,21,21,22,22,23,23,24,24,25,25,26,26,27,27,28,28,29,29,30,30,32,32,33,33,34,34,35,35,36,36,37,37,38,38,43,43,44,44,45,45,46,46,47,47,48,48],"right_children":[2,4,6,8,10,12,14,16,18,-1,20,22,24,26,28,-1,30,32,34,-1,-1,36,38,40,42,44,46,48,50,52,54,-1,56,58,60,62,64,66,68,-1,-1,-1,-1,70,72,74,76,78,80,-1,-1,-1,-1,-1,-1,-1,-1,-1,-1,-1,-1,-1,-1,-1,-1,-1,-1,-1,-1,-1,-1,-1,-1,-1,-1,-1,-1,-1,-1,-1,-1],"split_conditions":[-1.2181282E0,1.487967E0,-8.714782E-1,7.10261E-2,1E0,1.4432034E0,1E0,2.108357E1,2E0,1.9930116E0,4E0,1E0,1E0,-5.2482814E-1,1.6624041E0,-2.563405E-1,1E0,3.4219038E-1,1.0102015E0,6.259037E-1,9.240303E-2,4.35161E-1,2.1152212E1,1E0,2E0,1.3558902E-1,-1.7817812E-1,1.0937028E0,-5.2482814E-1,4E0,-1.4613298E0,9.664656E-1,6.495099E-1,2.1151958E1,7.906457E1,2.1165173E1,2E0,-1.4074029E-1,-1.6861528E-1,2.527611E-1,1.0025331E0,3.6957398E-1,5.3499985E-2,-3.3442906E-1,7.909026E1,8.8107556E-1,7.9163506E1,1.5737334E0,2.1079813E1,-2.6050073E-1,-2.7457982E-2,1.1052542E-1,7.009232E-1,-1.681501E-1,4.9527764E-2,-5.463083E-3,5.86867E-1,-1.7492181E-1,8.419838E-2,5.996025E-1,1.0709096E-1,-6.566459E-2,3.849044E-1,2.7667466E-1,9.830956E-1,-9.8258734E-2,2.2384788E-1,-2.5901222E-1,6.2386513E-2,-1.2571156E-1,3.6398992E-2,5.9705403E-2,7.487587E-1,-3.0923016E-2,4.1289645E-1,-2.5901493E-2,-5.2950367E-2,-2.5679978E-2,8.544818E-2,-1.4678156E-1,-4.4628806E-2],"split_indices":[6,4,6,4,1,4,1,2,1,0,0,1,1,6,5,0,1,4,4,0,0,4,2,0,1,4,6,4,6,0,5,0,4,2,3,2,0,4,5,0,0,0,0,4,3,4,3,5,2,0,0,0,0,0,0,0,0,0,0,0,0,0,0,0,0,0,0,0,0,0,0,0,0,0,0,0,0,0,0,0,0],"split_type":[0,0,0,0,0,0,0,0,0,0,0,0,0,0,0,0,0,0,0,0,0,0,0,0,0,0,0,0,0,0,0,0,0,0,0,0,0,0,0,0,0,0,0,0,0,0,0,0,0,0,0,0,0,0,0,0,0,0,0,0,0,0,0,0,0,0,0,0,0,0,0,0,0,0,0,0,0,0,0,0,0],"sum_hessian":[8E2,8E1,7.2E2,7.4E1,6E0,8.5E1,6.35E2,4.2E1,3.2E1,2E0,4E0,7.6E1,9E0,2.05E2,4.3E2,3E0,3.9E1,2.1E1,1.1E1,3E0,1E0,2.2E1,5.4E1,3E0,6E0,1.8E1,1.87E2,4.22E2,8E0,1.4E1,2.5E1,3E0,1.8E1,6E0,5E0,1.8E1,4E0,2.9E1,2.5E1,1E0,2E0,5E0,1E0,1E1,8E0,2.7E1,1.6E2,3.42E2,8E1,3E0,5E0,1.1E1,3E0,2E0,2.3E1,6E0,1.2E1,1E0,5E0,2E0,3E0,1.2E1,6E0,3E0,1E0,1.5E1,1.4E1,1.4E1,1.1E1,7E0,3E0,3E0,5E0,2.2E1,5E0,1.55E2,5E0,3.36E2,6E0,7E0,7.3E1],"tree_param":{"num_deleted":"0","num_feature":"7","num_nodes":"81","size_leaf_vector":"1"}},{"base_weights":[7.904705E-2,8.2306534E-1,-4.6485574E-3,6.2072384E-1,3.7745118E0,2.920944E-1,-4.476687E-2,1.5817492E-1,1.0446272E0,1.5944092E0,9.761556E-1,1.3571674E-1,1.6149126E0,1.9450594E-2,-7.535627E-2,-1.1343718E-1,5.822093E-1,1.3320696E0,4.1565758E-1,3.6072695E-1,7.85431E-2,3.806752E-1,-2.2830716E-1,8.020264E-1,9.3056434E-1,5.132701E-1,-3.0560153E-2,-6.612317E-2,-3.270126E-1,1.4231852E-1,-9.04424E-1,6.23082E-1,1.9248614E-1,6.866684E-1,1.6713252E0,-9.357029E-3,9.839032E-1,2.1643373E-1,1.2882788E0,-3.4060037E-1,9.7072726E-1,3.9396632E-1,9.457999E-2,1.4355977E-1,7.3116153E-1,-4.7421496E-2,4.8880413E-1,-7.245197E-2,8.314018E-1,-5.5821127E-1,-1.10856675E-1,-6.537363E-2,8.596124E-2,-3.7733117E-1,-3.9546207E-2,-5.4570887E-2,2.4836679E-1,4.360123E-1,-5.834465E-2,2.2901663E-1,7.180677E-1,-7.101841E-2,1.0021163E-1,4.7968218E-1,8.299485E-2,2.0338598E-1,-7.661766E-2,-4.147997E-2,4.6472427E-1,-6.50949E-2,-3.2696027E-1,3.4871638E-1,8.8110924E-2,-1.2847152E-1,2.0982207E-1,-2.2892684E-2,9.202258E-2,4.954182E-1,-2.2197783E-2,8.1445836E-2,-2.3192551E-2,3.7851864E-1,-4.3878215E-3,-7.739781E-2,-2.6175156E-1,-4.3938026E-2,-2.0593487E-2],"categories":[],"categories_nodes":[],"categories_segments":[],"categories_sizes":[],"default_left":[0,0,0,0,0,0,0,0,0,0,0,0,0,0,0,0,0,0,0,0,0,0,0,0,0,0,0,0,0,0,0,0,0,0,0,0,0,0,0,0,0,0,0,0,0,0,0,0,0,0,0,0,0,0,0,0,0,0,0,0,0,0,0,0,0,0,0,0,0,0,0,0,0,0,0,0,0,0,0,0,0,0,0,0,0,0,0],"id":15,"left_children":[1,3,5,7,9,11,13,15,17,-1,19,21,23,25,27,29,31,33,35,-1,-1,37,39,-1,41,43,45,47,49,51,53,-1,55,57,59,61,63,65,67,69,71,-1,-1,73,-1,75,77,79,81,83,85,-1,-1,-1,-1,-1,-1,-1,-1,-1,-1,-1,-1,-1,-1,-1,-1,-1,-1,-1,-1,-1,-1,-1,-1,-1,-1,-1,-1,-1,-1,-1,-1,-1,-1,-1,-1],"loss_changes":[4.9882942E1,4.603029E1,8.5964575E0,1.4932621E1,1.6361969E1,1.7570724E1,1.2508073E0,4.442613E0,6.6780205E0,0E0,1.7009234E-1,7.0422277E0,4.031706E0,5.1031194E0,9.798341E-1,4.983902E0,8.338184E0,4.764164E0,3.3903844E0,0E0,0E0,6.7272825E0,4.6392198E0,0E0,1.2341194E0,1.3164788E1,1.6695293E0,2.428903E0,6.8774295E-1,1.0495293E0,1.4721804E0,0E0,3.2431395E0,7.7140713E0,9.320404E0,7.817805E-1,2.1675787E0,9.101177E0,2.8185072E0,2.5421903E0,4.7879457E-2,0E0,0E0,5.7026625E0,0E0,1.8956578E0,4.048002E0,7.141814E-1,1.1106601E0,4.353981E-1,3.4721792E-3,0E0,0E0,0E0,0E0,0E0,0E0,0E0,0E0,0E0,0E0,0E0,0E0,0E0,0E0,0E0,0E0,0E0,0E0,0E0,0E0,0E0,0E0,0E0,0E0,0E0,0E0,0E0,0E0,0E0,0E0,0E0,0E0,0E0,0E0,0E0,0E0],"parents":[2147483647,0,0,1,1,2,2,3,3,4,4,5,5,6,6,7,7,8,8,10,10,11,11,12,12,13,13,14,14,15,15,16,16,17,17,18,18,21,21,22,22,24,24,25,25,26,26,27,27,28,28,29,29,30,30,32,32,33,33,34,34,35,35,36,36,37,37,38,38,39,39,40,40,43,43,45,45,46,46,47,47,48,48,49,49,50,50],"right_children":[2,4,6,8,10,12,14,16,18,-1,20,22,24,26,28,30,32,34,36,-1,-1,38,40,-1,42,44,46,48,50,52,54,-1,56,58,60,62,64,66,68,70,72,-1,-1,74,-1,76,78,80,82,84,86,-1,-1,-1,-1,-1,-1,-1,-1,-1,-1,-1,-1,-1,-1,-1,-1,-1,-1,-1,-1,-1,-1,-1,-1,-1,-1,-1,-1,-1,-1,-1,-1,-1,-1,-1,-1],"split_conditions":[-1.2181282E0,1.4948537E0,-8.714782E-1,-5.6378067E-2,1E0,1.4569769E0,1E0,4.4885197E-1,2E0,1.5944092E0,4E0,2E0,1.5516691E0,-5.2482814E-1,1.6274263E0,-4.4547728E-1,7.771611E-1,2E0,1.0102015E0,3.6072695E-1,7.85431E-2,7.913061E1,1.2228286E0,8.020264E-1,2E0,1.317521E0,1.6566914E0,1.5881462E0,-1.7817812E-1,-9.1076344E-1,7.9076904E1,6.23082E-1,-4.0501785E-1,7.9104836E1,-6.115809E-1,7.906457E1,7.906457E1,2.1151443E1,2.1084408E1,7.9151726E1,1E0,3.9396632E-1,9.457999E-2,-1.6528694E-2,7.3116153E-1,7.915503E1,1.67563E0,2.1044205E1,1E0,2.1179617E1,1.6624041E0,-6.537363E-2,8.596124E-2,-3.7733117E-1,-3.9546207E-2,-5.4570887E-2,2.4836679E-1,4.360123E-1,-5.834465E-2,2.2901663E-1,7.180677E-1,-7.101841E-2,1.0021163E-1,4.7968218E-1,8.299485E-2,2.0338598E-1,-7.661766E-2,-4.147997E-2,4.6472427E-1,-6.50949E-2,-3.2696027E-1,3.4871638E-1,8.8110924E-2,-1.2847152E-1,2.0982207E-1,-2.2892684E-2,9.202258E-2,4.954182E-1,-2.2197783E-2,8.1445836E-2,-2.3192551E-2,3.7851864E-1,-4.3878215E-3,-7.739781E-2,-2.6175156E-1,-4.3938026E-2,-2.0593487E-2],"split_indices":[6,4,6,4,1,4,1,5,1,0,0,1,4,6,5,4,5,0,4,0,0,3,4,0,0,4,4,5,6,5,3,0,4,3,5,3,3,2,2,3,0,0,0,5,0,3,4,2,0,2,5,0,0,0,0,0,0,0,0,0,0,0,0,0,0,0,0,0,0,0,0,0,0,0,0,0,0,0,0,0,0,0,0,0,0,0,0],"split_type":[0,0,0,0,0,0,0,0,0,0,0,0,0,0,0,0,0,0,0,0,0,0,0,0,0,0,0,0,0,0,0,0,0,0,0,0,0,0,0,0,0,0,0,0,0,0,0,0,0,0,0,0,0,0,0,0,0,0,0,0,0,0,0,0,0,0,0,0,0,0,0,0,0,0,0,0,0,0,0,0,0,0,0,0,0,0,0],"sum_hessian":[8E2,8E1,7.2E2,7.6E1,4E0,8.5E1,6.35E2,3.7E1,3.9E1,2E0,2E0,7.7E1,8E0,2.05E2,4.3E2,2.3E1,1.4E1,2.6E1,1.3E1,1E0,1E0,4.6E1,3.1E1,2E0,6E0,1.8E1,1.87E2,4.16E2,1.4E1,1.8E1,5E0,2E0,1.2E1,1E1,1.6E1,8E0,5E0,4E1,6E0,2.9E1,2E0,3E0,3E0,1.6E1,2E0,1.82E2,5E0,4.14E2,2E0,6E0,8E0,5E0,1.3E1,3E0,2E0,8E0,4E0,5E0,5E0,8E0,8E0,5E0,3E0,2E0,3E0,2E1,2E1,1E0,5E0,2.6E1,3E0,1E0,1E0,8E0,8E0,1.69E2,1.3E1,1E0,4E0,5E0,4.09E2,1E0,1E0,4E0,2E0,3E0,5E0],"tree_param":{"num_deleted":"0","num_feature":"7","num_nodes":"87","size_leaf_vector":"1"}},{"base_weights":[6.4870715E-2,6.301071E-1,1.2798473E-3,4.3188113E-1,2.6639416E0,2.2638859E-1,-2.9161397E-2,1.4419025E-1,7.9366374E-1,1.2755281E0,1.1784623E0,-3.2281965E-2,7.359232E-1,-4.3373067E-2,7.015189E-2,4.5619793E-2,8.842018E-1,1.2632966E0,5.3454953E-1,4.0854266E-1,6.6761404E-2,-4.5385247E-1,2.1925408E-1,1.8838577E0,2.8504136E-1,-3.0286822E-2,-1.7546187E-1,6.985443E-1,-1.9342147E-2,2.0910624E-1,-7.316192E-1,5.180752E-1,7.253809E-2,-7.931137E-2,1.7766886E0,8.7332237E-1,-5.7086056E-1,-8.010699E-1,-9.774879E-2,5.791617E-1,6.630811E-2,1.9723023E-1,8.837769E-1,-2.4261622E-2,6.5863115E-1,-4.1790005E-2,5.467508E-1,-6.130356E-1,-5.074255E-2,-1.1077603E-1,5.820657E-1,1.7829792E-1,-8.98293E-2,5.612487E-3,1.9354522E-1,1.0530711E-3,-3.8515314E-1,4.3121338E-2,-6.047211E-2,5.916266E-1,6.1333466E-2,4.0442878E-1,1.3459189E-1,-4.0664446E-1,4.8096087E-2,4.8940722E-2,-2.7414122E-1,3.6631966E-1,-9.859409E-2,1.6416906E-1,-1.2548934E-1,-2.0697165E-1,1.434012E-1,-3.1840268E-1,2.9029986E-1,-1.0725183E-2,-5.53938E-2,-3.7579092E-3,5.567719E-1,-1.4595238E-3,-2.5214744E-1,-5.384315E-3,-1.0242275E-1,3.465769E-1,-1.5429725E-1,-3.0165354E-2,5.097031E-1,-5.212457E-3,-7.6888286E-2],"categories":[],"categories_nodes":[],"categories_segments":[],"categories_sizes":[],"default_left":[0,0,0,0,0,0,0,0,0,0,0,0,0,0,0,0,0,0,0,0,0,0,0,0,0,0,0,0,0,0,0,0,0,0,0,0,0,0,0,0,0,0,0,0,0,0,0,0,0,0,0,0,0,0,0,0,0,0,0,0,0,0,0,0,0,0,0,0,0,0,0,0,0,0,0,0,0,0,0,0,0,0,0,0,0,0,0,0,0],"id":16,"left_children":[1,3,5,7,9,11,13,15,17,-1,19,21,23,25,27,29,31,33,35,-1,-1,37,39,41,43,45,47,49,51,53,55,-1,-1,57,59,61,63,65,67,-1,69,-1,-1,71,73,75,77,79,81,83,-1,85,87,-1,-1,-1,-1,-1,-1,-1,-1,-1,-1,-1,-1,-1,-1,-1,-1,-1,-1,-1,-1,-1,-1,-1,-1,-1,-1,-1,-1,-1,-1,-1,-1,-1,-1,-1,-1],"loss_changes":[2.8790237E1,3.1505356E1,4.9473195E0,7.691678E0,1.1500164E1,1.1358692E1,9.006981E-1,3.0962238E0,3.3404255E0,0E0,5.732732E-1,6.2498393E0,1.4472923E1,9.574864E-1,4.5125012E0,5.1086397E0,2.2892792E0,7.7230396E0,9.111652E0,0E0,0E0,2.6418958E0,9.556152E0,8.483583E0,2.5581331E0,3.3948357E0,2.6975882E0,1.0264055E1,1.0051236E0,2.7276554E0,2.846202E0,0E0,0E0,1.3805579E-1,2.0545444E0,3.024497E0,3.6595097E0,1.3447609E0,4.0554414E0,0E0,8.385923E0,0E0,0E0,4.676068E0,6.342346E0,4.23918E-1,7.3450546E0,1.5175619E0,3.7516698E-1,4.1705103E0,0E0,8.227774E0,6.347867E-1,0E0,0E0,0E0,0E0,0E0,0E0,0E0,0E0,0E0,0E0,0E0,0E0,0E0,0E0,0E0,0E0,0E0,0E0,0E0,0E0,0E0,0E0,0E0,0E0,0E0,0E0,0E0,0E0,0E0,0E0,0E0,0E0,0E0,0E0,0E0,0E0],"parents":[2147483647,0,0,1,1,2,2,3,3,4,4,5,5,6,6,7,7,8,8,10,10,11,11,12,12,13,13,14,14,15,15,16,16,17,17,18,18,21,21,22,22,23,23,24,24,25,25,26,26,27,27,28,28,29,29,30,30,33,33,34,34,35,35,36,36,37,37,38,38,40,40,43,43,44,44,45,45,46,46,47,47,48,48,49,49,51,51,52,52],"right_children":[2,4,6,8,10,12,14,16,18,-1,20,22,24,26,28,30,32,34,36,-1,-1,38,40,42,44,46,48,50,52,54,56,-1,-1,58,60,62,64,66,68,-1,70,-1,-1,72,74,76,78,80,82,84,-1,86,88,-1,-1,-1,-1,-1,-1,-1,-1,-1,-1,-1,-1,-1,-1,-1,-1,-1,-1,-1,-1,-1,-1,-1,-1,-1,-1,-1,-1,-1,-1,-1,-1,-1,-1,-1,-1],"split_conditions":[-1.2181282E0,1.487967E0,-8.714782E-1,7.10261E-2,1E0,4.6529034E-1,1.3287119E0,2.1192617E1,1E0,1.2755281E0,4E0,2.1141537E1,1E0,1.0618517E0,-5.2482814E-1,2.1181814E1,7.9037E1,7.906387E1,7.910352E1,4.0854266E-1,6.6761404E-2,7.907755E1,2.1144241E1,2E0,7.911192E1,1.0102015E0,-1.7817812E-1,2.1154484E1,2.113205E1,2.1162899E1,2E0,5.180752E-1,7.253809E-2,2.1052607E1,1.397579E0,2E0,6.495099E-1,-1.5645679E0,7.909833E1,5.791617E-1,-5.273417E-1,1.9723023E-1,8.837769E-1,1.1565441E0,1E0,1.6274263E0,7.909789E1,-1.0811348E0,7.915406E1,1.397579E0,5.820657E-1,2.112388E1,7.911507E1,5.612487E-3,1.9354522E-1,1.0530711E-3,-3.8515314E-1,4.3121338E-2,-6.047211E-2,5.916266E-1,6.1333466E-2,4.0442878E-1,1.3459189E-1,-4.0664446E-1,4.8096087E-2,4.8940722E-2,-2.7414122E-1,3.6631966E-1,-9.859409E-2,1.6416906E-1,-1.2548934E-1,-2.0697165E-1,1.434012E-1,-3.1840268E-1,2.9029986E-1,-1.0725183E-2,-5.53938E-2,-3.7579092E-3,5.567719E-1,-1.4595238E-3,-2.5214744E-1,-5.384315E-3,-1.0242275E-1,3.465769E-1,-1.5429725E-1,-3.0165354E-2,5.097031E-1,-5.212457E-3,-7.6888286E-2],"split_indices":[6,4,6,4,1,4,4,2,1,0,0,2,1,4,6,2,3,3,3,0,0,3,2,0,3,4,6,2,2,2,0,0,0,2,4,1,4,4,3,0,5,0,0,4,0,5,3,5,3,4,0,2,3,0,0,0,0,0,0,0,0,0,0,0,0,0,0,0,0,0,0,0,0,0,0,0,0,0,0,0,0,0,0,0,0,0,0,0,0],"split_type":[0,0,0,0,0,0,0,0,0,0,0,0,0,0,0,0,0,0,0,0,0,0,0,0,0,0,0,0,0,0,0,0,0,0,0,0,0,0,0,0,0,0,0,0,0,0,0,0,0,0,0,0,0,0,0,0,0,0,0,0,0,0,0,0,0,0,0,0,0,0,0,0,0,0,0,0,0,0,0,0,0,0,0,0,0,0,0,0,0],"sum_hessian":[8E2,8E1,7.2E2,7.4E1,6E0,8.5E1,6.35E2,4.2E1,3.2E1,2E0,4E0,5.7E1,2.8E1,5.56E2,7.9E1,3.8E1,4E0,1E1,2.2E1,3E0,1E0,2.1E1,3.6E1,7E0,2.1E1,5.07E2,4.9E1,9E0,7E1,3.2E1,6E0,1E0,3E0,3E0,7E0,1.7E1,5E0,1E1,1.1E1,2E0,3.4E1,4E0,3E0,1.2E1,9E0,4.98E2,9E0,1E1,3.9E1,6E0,3E0,1.8E1,5.2E1,2.3E1,9E0,3E0,3E0,1E0,2E0,6E0,1E0,7E0,1E1,2E0,3E0,1E0,9E0,1E0,1E1,1.7E1,1.7E1,5E0,7E0,1E0,8E0,4.79E2,1.9E1,7E0,2E0,3E0,7E0,3.6E1,3E0,1E0,5E0,1.6E1,2E0,3.7E1,1.5E1],"tree_param":{"num_deleted":"0","num_feature":"7","num_nodes":"89","size_leaf_vector":"1"}},{"base_weights":[5.279971E-2,4.7777367E-1,4.9832175E-3,2.824407E-1,1.8363937E0,1.7765462E-1,-1.8373268E-2,2.3635872E-1,5.3313905E-1,8.406258E-2,2.4633005E0,-1.1211844E-2,5.4926157E-1,-3.0135864E-2,6.375347E-2,1.1885829E-1,7.062634E-1,9.766114E-1,3.1662142E-1,-6.852008E-1,7.973305E-2,1.4538279E0,1.9536191E-1,-2.0242313E-2,-1.3005163E-1,5.664148E-1,-7.941833E-3,5.273644E-1,-1.0873779E-2,3.2757568E-1,1.1565844E0,5.0990228E-2,-8.5605675E-1,5.6890535E-1,-1.9597304E-1,1.4989518E-1,6.8492776E-1,-2.720037E-1,3.8762426E-1,-2.9385502E-2,4.3802705E-1,-4.5218027E-1,-3.821496E-2,-3.2654572E-1,8.712355E-1,1.5004721E-1,-6.442957E-2,1.7675472E-2,4.0763512E-1,-2.671913E-2,2.4385186E-1,2.6358435E-1,-2.8313829E-2,3.2569885E-2,4.0334246E-1,-1.09479755E-1,-3.6766106E-1,-2.6148271E-5,4.6330008E-1,-1.9841956E-1,4.886841E-2,1.2111901E-1,-3.922676E-1,4.0519007E-2,2.3581459E-1,-6.388945E-3,-3.808729E-2,-2.771458E-3,4.454176E-1,-1.9063596E-1,8.223174E-3,-3.8126768E-3,-7.937763E-2,4.0948775E-1,-2.614764E-2,-2.1648075E-2,4.0776217E-1,-7.257954E-2,-6.787155E-3],"categories":[],"categories_nodes":[],"categories_segments":[],"categories_sizes":[],"default_left":[0,0,0,0,0,0,0,0,0,0,0,0,0,0,0,0,0,0,0,0,0,0,0,0,0,0,0,0,0,0,0,0,0,0,0,0,0,0,0,0,0,0,0,0,0,0,0,0,0,0,0,0,0,0,0,0,0,0,0,0,0,0,0,0,0,0,0,0,0,0,0,0,0,0,0,0,0,0,0],"id":17,"left_children":[1,3,5,7,9,11,13,15,-1,-1,17,19,21,23,25,27,29,-1,-1,31,33,35,37,39,41,43,45,47,49,51,53,-1,55,57,59,-1,-1,61,63,65,67,69,71,-1,73,75,77,-1,-1,-1,-1,-1,-1,-1,-1,-1,-1,-1,-1,-1,-1,-1,-1,-1,-1,-1,-1,-1,-1,-1,-1,-1,-1,-1,-1,-1,-1,-1,-1],"loss_changes":[1.6274551E1,2.0977375E1,2.911055E0,4.539192E0,9.065594E0,6.0419903E0,6.163123E-1,3.8362486E0,0E0,0E0,4.3703346E0,3.6097932E0,8.999623E0,5.4797405E-1,2.887575E0,3.0795221E0,2.008566E0,0E0,0E0,1.1682756E0,7.124615E0,5.189375E0,2.082285E0,2.1414137E0,1.4618812E0,5.992806E0,6.4330304E-1,5.372596E0,2.9706705E0,2.1755457E0,1.0355101E0,0E0,6.4152575E-1,1.0545352E1,5.7866282E0,0E0,0E0,5.426216E0,1.5038562E0,3.911383E-1,4.695234E0,9.842739E-1,2.2759667E-1,0E0,4.3776054E0,5.2030835E0,3.878188E-1,0E0,0E0,0E0,0E0,0E0,0E0,0E0,0E0,0E0,0E0,0E0,0E0,0E0,0E0,0E0,0E0,0E0,0E0,0E0,0E0,0E0,0E0,0E0,0E0,0E0,0E0,0E0,0E0,0E0,0E0,0E0,0E0],"parents":[2147483647,0,0,1,1,2,2,3,3,4,4,5,5,6,6,7,7,10,10,11,11,12,12,13,13,14,14,15,15,16,16,19,19,20,20,21,21,22,22,23,23,24,24,25,25,26,26,27,27,28,28,29,29,30,30,32,32,33,33,34,34,37,37,38,38,39,39,40,40,41,41,42,42,44,44,45,45,46,46],"right_children":[2,4,6,8,10,12,14,16,-1,-1,18,20,22,24,26,28,30,-1,-1,32,34,36,38,40,42,44,46,48,50,52,54,-1,56,58,60,-1,-1,62,64,66,68,70,72,-1,74,76,78,-1,-1,-1,-1,-1,-1,-1,-1,-1,-1,-1,-1,-1,-1,-1,-1,-1,-1,-1,-1,-1,-1,-1,-1,-1,-1,-1,-1,-1,-1,-1,-1],"split_conditions":[-1.2181282E0,1.3803622E0,-8.714782E-1,7.9162025E1,-1.348093E0,4.6529034E-1,1.3287119E0,8.354511E-1,5.3313905E-1,8.406258E-2,1E0,-1.5391155E0,1E0,1.0618517E0,-5.2482814E-1,2.1121386E1,2.1167587E1,9.766114E-1,3.1662142E-1,7.8955574E1,-5.638253E-1,2E0,-7.9855925E-1,1.0102015E0,-1.7817812E-1,2.1079813E1,2.113205E1,2.1100035E1,2.1231974E1,7.906219E1,3E0,5.0990228E-2,1E0,-4.747458E-1,6.9292194E-1,1.4989518E-1,6.8492776E-1,-1.0141479E0,7.911307E1,7.9157036E1,7.909789E1,2.1176779E1,7.915406E1,-3.2654572E-1,2E0,2.112388E1,-1.7817812E-1,1.7675472E-2,4.0763512E-1,-2.671913E-2,2.4385186E-1,2.6358435E-1,-2.8313829E-2,3.2569885E-2,4.0334246E-1,-1.09479755E-1,-3.6766106E-1,-2.6148271E-5,4.6330008E-1,-1.9841956E-1,4.886841E-2,1.2111901E-1,-3.922676E-1,4.0519007E-2,2.3581459E-1,-6.388945E-3,-3.808729E-2,-2.771458E-3,4.454176E-1,-1.9063596E-1,8.223174E-3,-3.8126768E-3,-7.937763E-2,4.0948775E-1,-2.614764E-2,-2.1648075E-2,4.0776217E-1,-7.257954E-2,-6.787155E-3],"split_indices":[6,4,6,3,5,4,4,4,0,0,1,5,1,4,6,2,2,0,0,3,5,0,5,4,6,2,2,2,2,3,0,0,1,4,5,0,0,5,3,3,3,2,3,0,1,2,6,0,0,0,0,0,0,0,0,0,0,0,0,0,0,0,0,0,0,0,0,0,0,0,0,0,0,0,0,0,0,0,0],"split_type":[0,0,0,0,0,0,0,0,0,0,0,0,0,0,0,0,0,0,0,0,0,0,0,0,0,0,0,0,0,0,0,0,0,0,0,0,0,0,0,0,0,0,0,0,0,0,0,0,0,0,0,0,0,0,0,0,0,0,0,0,0,0,0,0,0,0,0,0,0,0,0,0,0,0,0,0,0,0,0],"sum_hessian":[8E2,8E1,7.2E2,7.1E1,9E0,8.5E1,6.35E2,7E1,1E0,3E0,6E0,5.7E1,2.8E1,5.56E2,7.9E1,5.7E1,1.3E1,3E0,3E0,6E0,5.1E1,7E0,2.1E1,5.07E2,4.9E1,9E0,7E1,1.3E1,4.4E1,8E0,5E0,1E0,5E0,1.8E1,3.3E1,4E0,3E0,6E0,1.5E1,4.98E2,9E0,1E1,3.9E1,1E0,8E0,1.8E1,5.2E1,9E0,4E0,4.1E1,3E0,3E0,5E0,1E0,4E0,3E0,2E0,1.2E1,6E0,1.4E1,1.9E1,4E0,2E0,1E1,5E0,4.61E2,3.7E1,7E0,2E0,7E0,3E0,3.6E1,3E0,5E0,3E0,1.6E1,2E0,9E0,4.3E1],"tree_param":{"num_deleted":"0","num_feature":"7","num_nodes":"79","size_leaf_vector":"1"}},{"base_weights":[4.2512517E-2,3.742446E-1,5.185456E-3,2.6557922E-1,1.9728425E0,9.493759E-2,-1.9763695E-2,1.488667E-1,7.012415E-1,8.251007E-1,5.37735E-1,3.788325E-1,-1.5468663E-2,-1.6128778E-2,-8.404876E-2,1.01780616E-1,4.5316774E-1,1.069903E0,4.3640414E-1,1.9784318E-1,4.4137575E-2,-5.203963E-2,9.4850844E-1,7.323658E-1,-4.932051E-2,-1.8618904E-2,3.1971267E-1,-1.2878151E-1,-2.3726946E-2,-5.6948535E-2,3.4886092E-1,1.2454895E0,2.8795624E-2,-1.1483345E-1,5.566002E-1,4.0230766E-1,-4.1204816E-1,3.367977E-1,1.7475109E0,3.4663126E-1,6.517216E-2,-8.618434E-2,5.0541633E-1,-2.2767466E-2,4.1059706E-2,-9.275283E-2,3.3095685E-1,-7.297554E-2,-1.824413E-1,-3.4851607E-2,8.604204E-3,2.220336E-2,-1.4614601E-1,1.4873143E-1,-2.5343093E-1,6.313133E-2,4.354929E-1,7.9639435E-2,2.383928E-1,-9.2993736E-2,2.8661E-1,-1.9157667E-1,2.1209334E-1,1.4072342E-2,3.5724947E-1,1.03681184E-1,5.6952345E-1,5.0437015E-2,-2.1109542E-2,-4.3646332E-2,6.15711E-2,2.4558009E-1,-5.5508703E-2,-5.7082586E-3,-6.1124306E-2,3.753832E-2,-5.4486945E-2,-3.1826317E-2,-9.965841E-3,-2.6115889E-2,-7.681992E-2,-1.7133705E-2,-7.406468E-3],"categories":[],"categories_nodes":[],"categories_segments":[],"categories_sizes":[],"default_left":[0,0,0,0,0,0,0,0,0,0,0,0,0,0,0,0,0,0,0,0,0,0,0,0,0,0,0,0,0,0,0,0,0,0,0,0,0,0,0,0,0,0,0,0,0,0,0,0,0,0,0,0,0,0,0,0,0,0,0,0,0,0,0,0,0,0,0,0,0,0,0,0,0,0,0,0,0,0,0,0,0,0,0],"id":18,"left_children":[1,3,5,7,9,11,13,15,17,-1,19,21,23,25,27,29,-1,31,33,-1,-1,35,37,39,41,43,45,47,49,51,53,55,-1,-1,57,59,61,63,65,-1,67,69,71,73,75,-1,-1,77,79,81,-1,-1,-1,-1,-1,-1,-1,-1,-1,-1,-1,-1,-1,-1,-1,-1,-1,-1,-1,-1,-1,-1,-1,-1,-1,-1,-1,-1,-1,-1,-1,-1,-1],"loss_changes":[9.916509E0,1.3546745E1,1.6163682E0,3.8108459E0,4.0999794E0,4.926832E0,1.3066846E-1,3.8214943E0,1.0952549E0,0E0,4.5635343E-2,1.0849488E1,2.9220967E0,4.5420277E-1,7.7895224E-2,2.4122167E0,0E0,9.0649176E-1,1.2961419E0,0E0,0E0,4.4185615E0,8.697853E0,1.3360512E0,2.2930284E0,1.3289516E-1,2.3119588E0,3.7593365E-2,9.1618085E-3,2.1769562E0,4.6273775E0,7.614169E-1,0E0,0E0,4.8207617E-1,5.0233836E0,4.2540426E0,2.9150505E0,1.0362873E0,0E0,5.3691212E-2,1.8272175E0,1.6651193E0,3.3387375E-1,6.7794394E-1,0E0,0E0,9.6399225E-3,3.3892483E-2,1.3049291E-3,0E0,0E0,0E0,0E0,0E0,0E0,0E0,0E0,0E0,0E0,0E0,0E0,0E0,0E0,0E0,0E0,0E0,0E0,0E0,0E0,0E0,0E0,0E0,0E0,0E0,0E0,0E0,0E0,0E0,0E0,0E0,0E0,0E0],"parents":[2147483647,0,0,1,1,2,2,3,3,4,4,5,5,6,6,7,7,8,8,10,10,11,11,12,12,13,13,14,14,15,15,17,17,18,18,21,21,22,22,23,23,24,24,25,25,26,26,27,27,28,28,29,29,30,30,31,31,34,34,35,35,36,36,37,37,38,38,40,40,41,41,42,42,43,43,44,44,47,47,48,48,49,49],"right_children":[2,4,6,8,10,12,14,16,18,-1,20,22,24,26,28,30,-1,32,34,-1,-1,36,38,40,42,44,46,48,50,52,54,56,-1,-1,58,60,62,64,66,-1,68,70,72,74,76,-1,-1,78,80,82,-1,-1,-1,-1,-1,-1,-1,-1,-1,-1,-1,-1,-1,-1,-1,-1,-1,-1,-1,-1,-1,-1,-1,-1,-1,-1,-1,-1,-1,-1,-1,-1,-1],"split_conditions":[-1.2181282E0,1.4948537E0,-5.2482814E-1,1.0102015E0,1E0,1E0,7.916599E1,7.9162025E1,7.906457E1,8.251007E-1,4E0,2.6815823E-1,2.1066284E1,7.9163506E1,2E0,5.912154E-1,4.5316774E-1,4E0,7.907908E1,1.9784318E-1,4.4137575E-2,7.906334E1,1.715838E-2,7.913321E1,1.6686854E0,1.6170928E0,1.2032617E0,1.8465684E-1,9.516644E-1,6.650586E-2,7.915469E1,2.1019508E1,2.8795624E-2,-1.1483345E-1,3E0,-9.576765E-1,7.913061E1,1.317521E0,1E0,3.4663126E-1,3E0,2.1200542E1,-8.714782E-1,1.5516691E0,9.8147774E-1,-9.275283E-2,3.3095685E-1,1E0,3E0,-1.7817812E-1,8.604204E-3,2.220336E-2,-1.4614601E-1,1.4873143E-1,-2.5343093E-1,6.313133E-2,4.354929E-1,7.9639435E-2,2.383928E-1,-9.2993736E-2,2.8661E-1,-1.9157667E-1,2.1209334E-1,1.4072342E-2,3.5724947E-1,1.03681184E-1,5.6952345E-1,5.0437015E-2,-2.1109542E-2,-4.3646332E-2,6.15711E-2,2.4558009E-1,-5.5508703E-2,-5.7082586E-3,-6.1124306E-2,3.753832E-2,-5.4486945E-2,-3.1826317E-2,-9.965841E-3,-2.6115889E-2,-7.681992E-2,-1.7133705E-2,-7.406468E-3],"split_indices":[6,4,6,4,1,1,3,3,3,0,0,4,2,3,1,5,0,0,3,0,0,3,5,3,5,4,5,4,4,5,3,2,0,0,0,4,3,4,0,0,0,2,6,4,5,0,0,1,0,6,0,0,0,0,0,0,0,0,0,0,0,0,0,0,0,0,0,0,0,0,0,0,0,0,0,0,0,0,0,0,0,0,0],"split_type":[0,0,0,0,0,0,0,0,0,0,0,0,0,0,0,0,0,0,0,0,0,0,0,0,0,0,0,0,0,0,0,0,0,0,0,0,0,0,0,0,0,0,0,0,0,0,0,0,0,0,0,0,0,0,0,0,0,0,0,0,0,0,0,0,0,0,0,0,0,0,0,0,0,0,0,0,0,0,0,0,0,0,0],"sum_hessian":[8E2,8E1,7.2E2,7.6E1,4E0,1.56E2,5.64E2,6.1E1,1.5E1,2E0,2E0,4.3E1,1.13E2,5.35E2,2.9E1,6E1,1E0,5E0,1E1,1E0,1E0,2.5E1,1.8E1,4E0,1.09E2,5.32E2,3E0,1.6E1,1.3E1,3.7E1,2.3E1,4E0,1E0,1E0,9E0,1.1E1,1.4E1,1.1E1,7E0,2E0,2E0,1.03E2,6E0,4.98E2,3.4E1,2E0,1E0,9E0,7E0,1.1E1,2E0,2.9E1,8E0,2.1E1,2E0,1E0,3E0,5E0,4E0,5E0,6E0,1.2E1,2E0,9E0,2E0,1E0,6E0,1E0,1E0,8.6E1,1.7E1,4E0,2E0,4.89E2,9E0,2.5E1,9E0,4E0,5E0,4E0,3E0,2E0,9E0],"tree_param":{"num_deleted":"0","num_feature":"7","num_nodes":"83","size_leaf_vector":"1"}},{"base_weights":[3.4576107E-2,2.8693762E-1,6.1768554E-3,1.9831072E-1,1.5944046E0,-6.9183856E-3,1.20765224E-1,1.4480211E-1,9.398743E-1,6.6008E-1,4.570745E-1,-3.071847E-3,-3.5871258E-1,4.6650934E-1,1.7344275E-2,1.39398575E-2,4.6817815E-1,3.8012394E-1,8.981323E-2,1.6816635E-1,3.7517168E-2,6.2171947E-3,-1.04334325E-1,-2.7101672E-1,-1.1736835E-1,1.0030807E0,2.2425038E-1,-1.8657623E-1,5.370308E-2,3.6382815E-1,-1.0886954E-1,7.00442E-1,2.7136642E-1,-8.413747E-3,1.307159E-1,-8.017595E-1,-4.7588535E-2,-6.408434E-2,-4.7525014E-3,8.812866E-2,3.3209097E-1,9.7552806E-2,2.616932E-1,-1.2810346E-1,-5.687878E-2,1.5506323E-1,-4.5824092E-2,-4.619279E-3,3.1485423E-1,-5.553892E-2,1.8712635E-1,2.9713327E-1,2.7098466E-2,-1.5310593E-1,1.379679E-1,-4.763917E-3,6.508164E-2,1.6830826E-1,-1.9439174E-3,-2.7471495E-1,-6.898331E-2,-2.7337732E-2,8.82385E-2,-1.3576031E-2,7.4370384E-2,-3.6241848E-2,-2.143981E-3,1.7988896E-1,4.18202E-3,-6.8312645E-2,6.038029E-3],"categories":[],"categories_nodes":[],"categories_segments":[],"categories_sizes":[],"default_left":[0,0,0,0,0,0,0,0,0,0,0,0,0,0,0,0,0,0,0,0,0,0,0,0,0,0,0,0,0,0,0,0,0,0,0,0,0,0,0,0,0,0,0,0,0,0,0,0,0,0,0,0,0,0,0,0,0,0,0,0,0,0,0,0,0,0,0,0,0,0,0],"id":19,"left_children":[1,3,5,7,9,11,13,15,17,-1,19,21,23,25,27,29,31,-1,-1,-1,-1,33,35,-1,37,39,41,43,45,47,49,51,53,55,57,59,61,-1,-1,-1,-1,63,-1,-1,65,67,69,-1,-1,-1,-1,-1,-1,-1,-1,-1,-1,-1,-1,-1,-1,-1,-1,-1,-1,-1,-1,-1,-1,-1,-1],"loss_changes":[5.7388973E0,9.06983E0,1.0827409E0,2.9192667E0,2.439639E0,8.7576514E-1,2.6379404E0,3.082667E0,6.6853476E-1,0E0,3.297007E-2,6.045339E-1,8.1415224E-1,1.9848754E0,4.4004944E-1,2.316997E0,7.698808E-1,0E0,0E0,0E0,0E0,1.073983E0,2.0989463E0,0E0,5.5245288E-2,4.3266773E-2,9.823032E-1,2.5636673E-1,5.1151E-1,3.6565762E0,2.3502772E0,1.5029435E0,2.1505814E0,8.917926E-1,3.6639216E0,5.0085545E-2,7.855504E-1,0E0,0E0,0E0,0E0,2.688668E-1,0E0,0E0,2.1391379E-2,1.5601075E0,3.164648E-1,0E0,0E0,0E0,0E0,0E0,0E0,0E0,0E0,0E0,0E0,0E0,0E0,0E0,0E0,0E0,0E0,0E0,0E0,0E0,0E0,0E0,0E0,0E0,0E0],"parents":[2147483647,0,0,1,1,2,2,3,3,4,4,5,5,6,6,7,7,8,8,10,10,11,11,12,12,13,13,14,14,15,15,16,16,21,21,22,22,24,24,25,25,26,26,27,27,28,28,29,29,30,30,31,31,32,32,33,33,34,34,35,35,36,36,41,41,44,44,45,45,46,46],"right_children":[2,4,6,8,10,12,14,16,18,-1,20,22,24,26,28,30,32,-1,-1,-1,-1,34,36,-1,38,40,42,44,46,48,50,52,54,56,58,60,62,-1,-1,-1,-1,64,-1,-1,66,68,70,-1,-1,-1,-1,-1,-1,-1,-1,-1,-1,-1,-1,-1,-1,-1,-1,-1,-1,-1,-1,-1,-1,-1,-1],"split_conditions":[-1.2181282E0,1.4948537E0,1.4302908E0,7.916059E1,1E0,1.413935E0,-5.2482814E-1,6.805001E-1,3.3272114E-1,6.6008E-1,4E0,7.9153076E1,2.1079813E1,1E0,-1.1421846E0,2.1121386E1,1.715838E-2,3.8012394E-1,8.981323E-2,1.6816635E-1,3.7517168E-2,7.9132706E1,-8.714782E-1,-2.7101672E-1,2E0,1E0,1.3587902E0,-1.7817812E-1,2.1150139E1,7.9076904E1,2.1231974E1,7.9086655E1,9.8558046E-2,1.2779224E0,-5.2482814E-1,7.9162025E1,1.3135729E0,-6.408434E-2,-4.7525014E-3,8.812866E-2,3.3209097E-1,1.5637208E0,2.616932E-1,-1.2810346E-1,1E0,-1.7817812E-1,-1.7817812E-1,-4.619279E-3,3.1485423E-1,-5.553892E-2,1.8712635E-1,2.9713327E-1,2.7098466E-2,-1.5310593E-1,1.379679E-1,-4.763917E-3,6.508164E-2,1.6830826E-1,-1.9439174E-3,-2.7471495E-1,-6.898331E-2,-2.7337732E-2,8.82385E-2,-1.3576031E-2,7.4370384E-2,-3.6241848E-2,-2.143981E-3,1.7988896E-1,4.18202E-3,-6.8312645E-2,6.038029E-3],"split_indices":[6,4,4,3,1,4,6,4,4,0,0,3,2,1,5,2,5,0,0,0,0,3,6,0,0,0,5,6,2,3,2,3,5,4,6,3,5,0,0,0,0,4,0,0,0,6,6,0,0,0,0,0,0,0,0,0,0,0,0,0,0,0,0,0,0,0,0,0,0,0,0],"split_type":[0,0,0,0,0,0,0,0,0,0,0,0,0,0,0,0,0,0,0,0,0,0,0,0,0,0,0,0,0,0,0,0,0,0,0,0,0,0,0,0,0,0,0,0,0,0,0,0,0,0,0,0,0,0,0,0,0,0,0,0,0,0,0,0,0,0,0,0,0,0,0],"sum_hessian":[8E2,8E1,7.2E2,7.6E1,4E0,6.47E2,7.3E1,7.2E1,4E0,2E0,2E0,6.41E2,6E0,1.6E1,5.7E1,5.2E1,2E1,2E0,2E0,1E0,1E0,5.88E2,5.3E1,1E0,5E0,4E0,1.2E1,8E0,4.9E1,1.3E1,3.9E1,8E0,1.2E1,5.27E2,6.1E1,3E0,5E1,2E0,3E0,1E0,3E0,1.1E1,1E0,2E0,6E0,2.4E1,2.5E1,9E0,4E0,3.6E1,3E0,5E0,3E0,2E0,1E1,5.11E2,1.6E1,1.4E1,4.7E1,2E0,1E0,4.5E1,5E0,6E0,5E0,2E0,4E0,5E0,1.9E1,6E0,1.9E1],"tree_param":{"num_deleted":"0","num_feature":"7","num_nodes":"71","size_leaf_vector":"1"}},{"base_weights":[2.7185317E-2,2.266168E-1,4.7426876E-3,1.5467246E-1,1.2892364E0,8.716694E-2,-6.410188E-3,1.11647725E-1,7.5189894E-1,5.764656E-1,6.21048E-1,1.2150581E-1,-6.4715624E-1,-4.973952E-3,-2.3209193E-1,1.5702908E-1,-5.3694445E-1,2.7068168E-1,2.2560883E-2,2.0932618E-1,3.189011E-2,3.2791373E-1,2.6883189E-2,-2.1977195E-1,-5.863581E-2,-1.2289414E-2,6.382496E-2,-3.9616343E-2,-1.2142781E-1,-9.635821E-3,2.9324612E-1,-2.5231737E-1,-5.3849537E-2,4.7722208E-1,-1.8377629E-1,-3.198499E-2,8.2959986E-1,-9.607917E-3,-3.9133045E-1,3.2935292E-1,2.8870039E-2,-1.5865797E-2,-1.9615588E-3,3.0955896E-2,-1.918538E-1,1.07674606E-1,-1.4654487E-2,-4.8800755E-2,2.4568463E-2,7.3879056E-2,3.7782606E-1,1.0494215E-1,-5.1265474E-2,3.2690525E-1,7.4020387E-3,-9.534191E-3,1.3260075E-3,-2.3036443E-1,-2.9558972E-3,-1.965541E-2,2.6330605E-1,3.6337275E-2,-1.7405199E-2],"categories":[],"categories_nodes":[],"categories_segments":[],"categories_sizes":[],"default_left":[0,0,0,0,0,0,0,0,0,0,0,0,0,0,0,0,0,0,0,0,0,0,0,0,0,0,0,0,0,0,0,0,0,0,0,0,0,0,0,0,0,0,0,0,0,0,0,0,0,0,0,0,0,0,0,0,0,0,0,0,0,0,0],"id":20,"left_children":[1,3,5,7,9,11,13,15,17,19,-1,21,23,25,27,29,31,-1,-1,-1,-1,33,35,-1,-1,37,39,41,-1,43,45,-1,47,49,-1,51,53,55,57,59,61,-1,-1,-1,-1,-1,-1,-1,-1,-1,-1,-1,-1,-1,-1,-1,-1,-1,-1,-1,-1,-1,-1],"loss_changes":[3.584015E0,5.9929976E0,6.633506E-1,1.8946064E0,1.5897217E0,2.247194E0,2.0499364E-1,2.232997E0,4.4093132E-1,1.5393066E-1,0E0,1.6122459E0,1.1149049E-2,3.193706E-1,1.1690195E-1,1.5693052E0,6.8928766E-1,0E0,0E0,0E0,0E0,3.9433827E0,2.7672942E0,0E0,0E0,5.7863593E-1,5.5666345E-1,9.70996E-4,0E0,2.3400385E0,8.7120485E-1,0E0,5.7636745E-2,3.844924E0,0E0,2.976476E0,8.105087E-1,1.7743193E-1,5.670168E-1,1.5731523E0,4.4789225E-1,0E0,0E0,0E0,0E0,0E0,0E0,0E0,0E0,0E0,0E0,0E0,0E0,0E0,0E0,0E0,0E0,0E0,0E0,0E0,0E0,0E0,0E0],"parents":[2147483647,0,0,1,1,2,2,3,3,4,4,5,5,6,6,7,7,8,8,9,9,11,11,12,12,13,13,14,14,15,15,16,16,21,21,22,22,25,25,26,26,27,27,29,29,30,30,32,32,33,33,35,35,36,36,37,37,38,38,39,39,40,40],"right_children":[2,4,6,8,10,12,14,16,18,20,-1,22,24,26,28,30,32,-1,-1,-1,-1,34,36,-1,-1,38,40,42,-1,44,46,-1,48,50,-1,52,54,56,58,60,62,-1,-1,-1,-1,-1,-1,-1,-1,-1,-1,-1,-1,-1,-1,-1,-1,-1,-1,-1,-1,-1,-1],"split_conditions":[-1.2181282E0,1.4948537E0,-8.714782E-1,7.916059E1,5.7040777E-2,7.9153076E1,1.7634355E0,7.915503E1,5E0,4E0,6.21048E-1,1E0,7.9162025E1,1.4302908E0,2E0,-2.0960741E-1,2E0,2.7068168E-1,2.2560883E-2,2.0932618E-1,3.189011E-2,1.2032617E0,1.6274263E0,-2.1977195E-1,-5.863581E-2,1.4225433E0,-5.2482814E-1,1E0,-1.2142781E-1,-3.464808E-1,5E0,-2.5231737E-1,3E0,3.2146063E-1,-1.8377629E-1,-9.869143E-1,2E0,-4.3699327E-1,2.1079813E1,2.1154484E1,2.1151365E1,-1.5865797E-2,-1.9615588E-3,3.0955896E-2,-1.918538E-1,1.07674606E-1,-1.4654487E-2,-4.8800755E-2,2.4568463E-2,7.3879056E-2,3.7782606E-1,1.0494215E-1,-5.1265474E-2,3.2690525E-1,7.4020387E-3,-9.534191E-3,1.3260075E-3,-2.3036443E-1,-2.9558972E-3,-1.965541E-2,2.6330605E-1,3.6337275E-2,-1.7405199E-2],"split_indices":[6,4,6,3,5,3,4,3,0,0,0,1,3,4,0,4,0,0,0,0,0,5,5,0,0,4,6,0,0,4,0,0,0,5,0,5,1,5,2,2,2,0,0,0,0,0,0,0,0,0,0,0,0,0,0,0,0,0,0,0,0,0,0],"split_type":[0,0,0,0,0,0,0,0,0,0,0,0,0,0,0,0,0,0,0,0,0,0,0,0,0,0,0,0,0,0,0,0,0,0,0,0,0,0,0,0,0,0,0,0,0,0,0,0,0,0,0,0,0,0,0,0,0,0,0,0,0,0,0],"sum_hessian":[8E2,8E1,7.2E2,7.6E1,4E0,8.5E1,6.35E2,7.2E1,4E0,3E0,1E0,8.2E1,3E0,6.32E2,3E0,6.8E1,4E0,3E0,1E0,2E0,1E0,2.5E1,5.7E1,2E0,1E0,5.72E2,6E1,2E0,1E0,3.1E1,3.7E1,2E0,2E0,2.2E1,3E0,5.4E1,3E0,5.69E2,3E0,6E0,5.4E1,1E0,1E0,2.7E1,4E0,3.1E1,6E0,1E0,1E0,1.8E1,4E0,1.4E1,4E1,2E0,1E0,2.2E2,3.49E2,1E0,2E0,4E0,2E0,2.6E1,2.8E1],"tree_param":{"num_deleted":"0","num_feature":"7","num_nodes":"63","size_leaf_vector":"1"}},{"base_weights":[2.0366022E-2,1.6864501E-1,3.679526E-3,1.0760575E-1,1.0749207E0,-1.4956368E-2,3.8211364E-2,3.028855E-1,2.1124354E-3,4.6383286E-1,5.278908E-1,-1.0377288E-2,-5.446801E-1,2.0191893E-1,-1.042767E-2,-1.1017099E-1,5.5234057E-1,-8.423029E-2,2.609781E-1,1.6746217E-1,2.7106477E-2,-5.7710535E-3,-2.1984448E-1,6.977031E-4,-2.183372E-1,5.326603E-1,1.1401242E-1,-2.3287624E-2,8.2705654E-2,-3.5369772E-1,3.4876442E-1,3.49058E-1,2.9112214E-1,1.9844954E-1,-1.4164025E-1,5.7293826E-1,-5.6142807E-3,-1.2210002E-1,1.5297658E-3,-1.2890902E-1,-8.32684E-3,-4.2721454E-2,5.8726555E-1,-1.1330085E-1,-8.02844E-3,6.0805386E-1,-5.2766692E-2,1.7267228E-3,-2.142907E-1,1.3816023E-1,-1.4829826E-1,1.7189069E-1,-6.770468E-2,-9.913906E-2,-7.145834E-4,2.1341583E-1,-1.7895127E-2,-2.7572414E-2,8.9766316E-2,-1.412317E-1,-1.8492156E-5,2.1212917E-2,-4.5519723E-3,1.5906076E-3,-1.14706755E-2,-4.343184E-2,6.989268E-2,2.0993796E-1,-1.7580034E-2,1.3395295E-2,-1.0640812E-1,2.2309305E-4,-1.0380562E-2,2.9475328E-1,9.273678E-3,1.595483E-2,-2.4773393E-2],"categories":[],"categories_nodes":[],"categories_segments":[],"categories_sizes":[],"default_left":[0,0,0,0,0,0,0,0,0,0,0,0,0,0,0,0,0,0,0,0,0,0,0,0,0,0,0,0,0,0,0,0,0,0,0,0,0,0,0,0,0,0,0,0,0,0,0,0,0,0,0,0,0,0,0,0,0,0,0,0,0,0,0,0,0,0,0,0,0,0,0,0,0,0,0,0,0],"id":21,"left_children":[1,3,5,7,9,11,13,15,17,19,-1,21,23,25,27,29,31,33,35,-1,-1,37,39,-1,-1,-1,41,43,45,47,-1,49,-1,51,53,55,57,59,61,-1,63,65,67,69,71,73,75,-1,-1,-1,-1,-1,-1,-1,-1,-1,-1,-1,-1,-1,-1,-1,-1,-1,-1,-1,-1,-1,-1,-1,-1,-1,-1,-1,-1,-1,-1],"loss_changes":[1.9812592E0,4.365123E0,4.6455786E-1,1.5856148E0,1.2759285E0,1.1319764E0,2.0166378E0,2.8429058E0,1.1618918E0,9.0550184E-2,0E0,4.4835362E-1,4.0234256E-1,7.8207684E0,2.3667331E-1,3.8205426E0,1.1060271E0,6.610253E-1,1.0843773E0,0E0,0E0,3.8831544E-1,4.402966E-1,0E0,0E0,0E0,4.1788774E0,2.3671079E-1,1.7401688E0,1.300317E0,0E0,1.4498801E0,0E0,1.2412281E0,8.669547E-1,5.679178E-1,2.3794393E-1,1.1488588E0,4.9909902E-1,0E0,2.6484593E-3,1.2435446E0,1.0584965E0,9.6904844E-1,3.475828E-2,1.050202E0,6.7561515E-2,0E0,0E0,0E0,0E0,0E0,0E0,0E0,0E0,0E0,0E0,0E0,0E0,0E0,0E0,0E0,0E0,0E0,0E0,0E0,0E0,0E0,0E0,0E0,0E0,0E0,0E0,0E0,0E0,0E0,0E0],"parents":[2147483647,0,0,1,1,2,2,3,3,4,4,5,5,6,6,7,7,8,8,9,9,11,11,12,12,13,13,14,14,15,15,16,16,17,17,18,18,21,21,22,22,26,26,27,27,28,28,29,29,31,31,33,33,34,34,35,35,36,36,37,37,38,38,40,40,41,41,42,42,43,43,44,44,45,45,46,46],"right_children":[2,4,6,8,10,12,14,16,18,20,